913 32
356 0.3449544 0.64627945 0.018987086 0.28470924 -0.7236894 -0.20117535 -0.62959623 0.04882091 -0.3862182 0.453682 -0.20051667 0.031773143 -0.33509538 -0.11053193 0.26580977 0.33870876 -0.6936346 -0.5350425 -0.8603356 -0.009406283 0.43336412 -0.3085602 0.22834793 0.12983586 -0.6624342 -0.09030193 -0.3014836 -1.1938677 -0.7675738 -0.03660694 -0.008244354 -0.6027276
501 0.66560185 1.2189931 0.41153505 -0.273606 -0.68136483 -0.6092674 -0.2757497 0.3120393 -0.23354033 0.33456385 -0.2479225 0.03244787 -1.0689354 0.08183442 -0.03137463 0.21547921 -0.33481482 -0.55726874 -0.6919699 0.23055348 -0.023301937 -0.23129745 0.6301173 -0.3005479 -0.24212775 -0.59992665 -0.5161063 -0.77615416 -0.8655709 -0.52461463 0.52999324 -0.36362168
483 0.6895611 0.8191265 0.4730192 0.5944923 -0.62531143 -0.3720451 -0.59616274 0.2704422 0.39562643 0.33077332 0.34266973 0.37676737 -0.29087096 0.030694794 0.16531022 0.7128166 -0.76422495 -0.8044227 -1.0823859 -0.03398949 0.39372605 -0.8074479 0.2068302 0.07767442 -1.1479615 0.03510073 0.43558306 -0.51320344 -1.4461744 0.1312891 -0.06564164 -0.70644027
446 0.4759857 1.2525188 0.8038274 1.0041837 -0.30934983 -0.045486346 -0.8015963 0.398948 -0.012985633 0.34811804 0.8794651 -0.2369133 -0.426481 -0.28565857 -0.6768709 -0.0010906679 -0.48769832 -1.344945 -1.1235697 0.3067237 0.40676835 -0.44684693 0.40279883 0.95322496 -0.713245 0.44840217 -0.726465 -1.2535435 -0.8161582 0.37923235 0.2805615 -1.150758
410 0.49684465 1.9344916 0.6585085 -0.0445887 -0.6768446 -0.12569916 -0.071588516 0.7039208 0.8387685 0.29979092 0.02622829 -0.5332323 -0.8304521 -0.28344756 -0.105614945 0.6180332 -0.39277002 0.02894596 -0.6465858 0.39669153 0.47527835 -0.87124264 0.6189501 -0.35776812 -0.39757448 0.44685212 -0.07899912 -0.8220409 -0.94363695 -0.22925149 0.10055702 -0.34358644
367 0.8033107 1.2556127 0.5311291 0.61701685 -0.17076796 -0.39443094 -0.87157834 0.75121903 0.15848863 0.35086748 0.37361115 -0.078197695 -0.66557664 -0.8342715 -0.5051946 0.02961863 -0.7825248 -0.35576135 -0.9828261 0.6160627 0.36534572 -0.4070036 0.11628801 0.08557491 -1.6065978 -0.019144837 -0.07316479 -0.88966507 -1.0115193 -0.041023176 0.040271424 -1.0196745
450 0.16134326 1.1881067 0.64655083 0.115768515 -0.5887015 -0.5242708 -0.614717 0.92804575 0.12275866 -0.20423448 0.0623751 -0.35485607 -0.5952278 -0.0885264 -0.08233259 -0.040748224 -0.42290542 -0.24614465 -0.96207976 -0.4300838 0.09384629 -0.4865339 0.7418234 0.015970076 -0.7790921 -0.14231078 -0.6909355 -0.3868034 -1.3532298 -0.057878073 0.38865283 0.06725054
370 1.0957516 0.2866381 0.5385149 0.6977789 -0.6807548 -0.00032891828 -0.79351836 -0.08671742 -0.11092646 -0.051265653 0.28759718 -0.019732974 -0.5916879 -0.8119317 0.035963938 -0.27879882 -0.26365525 -0.87431246 -1.3631363 -0.31544653 0.6692061 0.105679415 -0.23067108 0.51970124 -1.4394866 -0.19233835 0.084286325 -0.70474786 -0.88584524 0.050363094 0.7465285 -1.3895721
434 0.23412201 0.9313022 0.6896242 0.11579363 -0.89898133 -0.22439288 -0.74059623 0.51450384 0.009711913 -0.12980773 0.04221925 -0.059459627 -0.7929652 -0.30134425 -0.19464055 -0.042600907 -0.16844179 -0.6128903 -1.1506132 -0.5354365 0.06780829 -0.29160145 0.74271244 -0.12219317 -0.7629456 -0.5131579 -0.8177841 -0.942746 -0.9732723 -0.38032672 0.59837425 -0.5851896
347 0.46323973 1.5803312 0.59520847 0.25007308 -0.07409972 0.0538859 -0.38358992 0.47807458 0.39951637 -0.20835032 0.054496687 -0.0020553155 0.2538959 -0.11667338 -0.44841787 0.17274736 -0.48163876 -0.65567434 -0.95743585 -0.5771091 0.56047386 -0.122448735 0.63800746 -0.15460886 -0.45854333 0.0962812 -0.3304989 -0.86693966 -1.2208786 -0.58438176 0.65280676 -0.54285306
355 0.15443987 1.1645012 0.981834 -0.04063616 -0.44359773 -0.12075879 -0.15302038 0.8500675 0.3260788 0.34091836 0.3065097 -0.2271039 -0.3086709 -0.40394816 -0.20580636 0.26034287 -0.5992974 -0.19969572 -0.7956496 0.099821255 -0.18981469 -0.7444027 0.7786194 -0.30298528 -0.9201394 0.16058847 0.14117718 -0.8003683 -0.603879 -0.15663752 -0.099951275 -0.60964847
382 0.3820761 1.3782701 0.75598013 0.30891958 -0.2121482 -0.2992457 -0.38051966 0.67789805 0.16503915 0.2675853 0.17579626 0.060334984 -0.5470688 -0.65024376 -0.34493887 0.1114403 -0.62385267 -0.2035779 -1.240531 0.32884172 -0.0074334163 -0.38781235 0.5119006 -0.028362947 -1.2819513 -0.23710747 -0.06260814 -0.97997594 -0.8899553 -0.0927451 0.2089084 -0.7964961
346 0.6785031 1.2962006 0.3294753 0.20411779 -0.20128049 -0.04375742 -0.3385068 0.57335514 0.7994597 -0.03232274 -0.1060593 0.046638172 -0.33199424 -0.36438334 -0.10064604 0.5495738 -0.401167 -0.31538987 -0.7682993 -0.41138843 0.8135588 -0.22642463 0.27750778 -0.5932739 -0.8476694 0.030419791 0.3562687 -0.6158254 -1.1332213 -0.34460205 0.40652168 -0.4010867
390 0.47906217 1.4977444 0.4939267 0.22569613 -0.17445782 0.015243573 -0.4418346 0.5735081 0.45361343 -0.31181785 0.029822774 -0.06497695 0.20408295 -0.09715747 -0.3541437 0.1756917 -0.37124914 -0.63343173 -0.97929555 -0.74447036 0.61370593 -0.11699561 0.6932963 -0.19447154 -0.3794756 0.0039274106 -0.42249638 -0.8540163 -1.2530525 -0.65585744 0.683735 -0.47758391
465 0.24108455 1.3541173 0.610093 -0.22801612 -0.29594225 0.0069024973 -0.62432307 0.5948242 0.2993656 -0.13607028 0.21481794 0.11706894 -0.5582603 -0.10264041 -0.076645456 0.5279291 -0.5639623 -0.047156423 -0.9701912 -0.3849538 0.60235476 -0.32242733 0.8374373 -0.5538318 -0.6528624 -0.265617 -0.19289805 -0.62673354 -0.99659365 -0.08816541 0.19017103 -0.5022126
476 0.24395923 0.9219621 0.42634484 -0.00944363 -0.45439348 -0.3838543 -0.43991083 0.93830794 0.18650652 -0.23294744 0.07680486 -0.1882267 -0.49154726 -0.07496743 -0.08239107 -0.05281563 -0.3923882 -0.18519457 -0.78762805 -0.2608416 0.09761774 -0.37831676 0.70762855 -0.13380429 -0.72300595 -0.15549386 -0.17584257 -0.32079032 -0.9609262 -0.12996508 0.2254881 -0.014826383
480 -0.027622538 1.7881429 1.1849226 0.9567425 -0.98943406 0.022418657 0.9464042 0.50107116 0.06927525 0.7258375 0.76056564 0.97749037 0.40252957 0.5534796 0.1082259 0.3132924 -0.5486571 -0.6427069 -0.954318 -0.5662588 0.071330264 -0.8812782 1.0685712 0.19157611 -1.2134552 -0.6308689 -0.18088698 -1.5255723 -0.10409743 -0.18911684 0.122226834 0.15900305
417 0.7700731 0.7430308 0.10797824 0.081477016 -0.23179063 -0.52516216 -0.7039328 0.8271945 0.083354436 -0.2735742 -0.049051326 0.18673648 -1.135015 -0.592833 0.166461 0.31659222 -0.16057184 -0.09346898 -1.3027464 -0.3898669 0.51871693 -0.20954055 0.42155617 -0.13903867 -1.4623909 -0.92741716 0.07256245 -0.45505604 -0.98277634 -0.018023452 0.6578278 -0.1646333
455 0.28586808 0.9564306 0.9232855 -0.1347303 -0.61655676 0.09995984 -0.40160826 0.6485717 0.27169022 -0.033713076 0.31976303 -0.189759 -0.6963414 -0.51342815 -0.32889587 0.31689757 -0.5763924 -0.33005017 -0.63127136 0.14086482 0.48469535 -0.15086612 1.0275756 -0.271171 -0.33764 -0.4968985 -0.5262719 -0.7382317 -0.55608493 -0.41303873 -0.006840253 -0.6051053
488 0.18276212 1.3438017 1.0959595 0.24580725 -1.0818636 -0.17532997 -0.26825714 0.70292896 0.72452587 0.8594904 0.0219461 0.09242031 -1.0911261 -0.48001453 0.12126033 1.067082 -0.4347673 0.777614 -0.99033636 0.19584973 0.37106165 -1.0132955 1.1159589 -1.0248878 -0.36012536 0.016491499 0.022804037 -1.3097943 -0.8677519 -0.1531592 -0.40199596 -0.5945194
436 0.6987371 0.73061806 0.726759 -0.1562732 -0.28382462 -0.6290068 -0.37519047 0.5371031 0.2603425 -0.3827951 -0.32023266 0.18423533 -0.4732653 -0.116396524 -0.33845717 0.3058823 -0.642587 -0.23634733 -0.9839038 -0.44479468 0.11935693 0.03444464 0.83386284 -0.5426232 -0.81354564 -0.33746022 0.48356977 -0.5936748 -1.4206802 -0.12006205 0.501907 -0.4199997
500 0.5989995 1.3876485 0.61946446 -0.00065907766 -0.2531824 -0.17570159 -0.2400291 0.58011574 0.23235765 -0.033682946 0.19613981 -0.3463371 -0.6979204 -0.40675238 -0.44683716 0.2203386 -0.49023262 -0.51275516 -0.89350915 0.20742977 0.61393917 -0.05162047 0.6148629 -0.14360176 -0.43021113 -0.18335742 -0.69815725 -0.8510952 -0.8450341 -0.29527235 0.2531351 -0.80500966
438 0.6681181 1.0627588 0.55961645 0.34352767 -0.50486565 -0.28008342 0.025060482 0.49583736 0.56257045 0.18547338 0.34630203 0.5798706 -0.3332714 -0.30942065 -0.045568738 0.77651006 -0.002317699 0.05043499 -1.5191628 -0.34257725 0.40623623 -0.84363955 0.44343072 -0.3881468 -1.2301973 -0.32317087 0.109728985 -0.58058286 -0.7189445 0.054358322 0.32896802 -0.5404329
454 0.30515772 0.8503278 0.9486135 -0.15380594 -0.63526237 0.10636633 -0.40779415 0.7078118 0.27923936 -0.033373248 0.3860308 -0.22780935 -0.7631688 -0.6011011 -0.32898235 0.26333368 -0.52953196 -0.36118293 -0.6222834 0.14024174 0.47576126 -0.13483831 0.95024055 -0.21779414 -0.44732973 -0.4728782 -0.5037568 -0.7525861 -0.4397784 -0.39465377 -0.0488679 -0.70881
441 0.55827904 1.3689044 0.6761248 -0.07034083 -0.28131577 -0.10483275 -0.2685562 0.59569263 0.23295304 0.045405187 0.19819784 -0.38817278 -0.71185184 -0.45503134 -0.4778315 0.25695965 -0.5691941 -0.42898354 -0.8054844 0.37254706 0.6108133 -0.08529544 0.6657074 -0.24835901 -0.37950537 -0.1044638 -0.6275925 -0.85876 -0.7827062 -0.32291952 0.11203118 -0.85960436
340 0.13144153 1.2695861 0.75553393 -0.29529646 -0.15057899 0.4666355 -0.24444215 0.49322852 0.11654921 0.40634802 0.14513814 -0.099303685 -0.31411496 0.008956856 0.29542056 0.39349446 -0.26679355 0.15685405 -1.0776726 -0.20776175 0.853368 -0.44254258 0.33067077 -0.50383765 -0.92088157 -0.09015058 -0.24025373 -1.1085873 -0.9374934 -0.036140572 0.015397211 -0.7027905
352 0.1484826 1.3569843 0.94455856 0.12589973 -0.33362028 -0.11771772 -0.02068815 0.62900084 0.21906312 0.18367945 0.357901 -0.1086716 -0.032219473 -0.21237247 -0.47150913 0.29360247 -0.7838822 -0.46115202 -0.7468792 0.24610223 -0.048339304 -0.46440235 0.7665079 -0.2513883 -0.65938747 0.2097774 -0.10145963 -0.8212478 -0.7466086 -0.094610326 -0.08353755 -0.5283054
497 0.7404308 1.0895742 0.27916905 0.5825038 -0.18792377 -0.49989817 -0.7234357 0.774045 0.13573027 0.44673595 0.053496342 -0.25831282 -1.1374768 -0.7280069 -0.4443631 0.18823485 -0.41475433 -0.17139696 -0.64799774 0.39002368 0.6312728 0.025659977 0.35600773 -0.17022927 -0.9017689 -0.12869103 -0.27251545 -0.7287231 -0.52369964 -0.3443481 0.18689793 -0.7251759
351 0.26615945 1.1016339 1.0086746 0.16285793 -0.50262177 -0.07871183 0.14720969 0.5003096 0.06500681 -0.055716183 0.31623733 -0.16093746 0.04406552 -0.005698435 -0.28960395 0.07707876 -0.8444076 -0.6495961 -0.6370086 0.16689147 0.167692 -0.4883549 0.5805662 -0.13206466 -0.9492744 0.26855105 0.12683287 -0.72586507 -0.6123961 0.052701507 -0.22493744 -0.44926926
535 0.46268326 1.1776161 0.29291704 0.32760695 -0.33469793 -0.5400413 -0.6699432 0.70093757 0.30953026 0.050963283 -0.6526119 -0.5054606 -1.493083 -0.5858011 -0.009118504 0.72061676 -0.81062275 -0.16811088 -0.60614526 0.5118752 0.9541482 -0.35086966 0.64757055 -0.85531086 -0.76310784 -0.024064748 -0.2903357 -0.6056688 -0.91066253 -0.1534018 0.017603949 -0.32934362
348 0.38010013 0.92270786 0.69374484 0.099321656 -0.3936138 -0.14698641 -0.25246114 0.5285436 0.22512971 0.051918242 0.10804908 -0.18330172 -0.30830395 -0.24810497 -0.2424845 0.1825101 -0.55011314 -0.54946864 -0.6897449 -0.014953598 0.30004176 -0.27171305 0.55430424 -0.2050705 -0.78797513 0.05322519 -0.006063607 -0.6763397 -0.77663016 -0.1706352 0.089778446 -0.59219337
399 -0.047553994 1.0941607 0.560801 -0.040589448 -0.556881 -0.12013007 0.057028316 0.4725152 -0.062647626 -0.048827868 0.49426705 0.35337767 -0.5621575 0.0959598 -0.15272729 -0.14603823 -0.18266295 -0.22640349 -1.5207298 0.00884702 -0.100808054 -0.68704265 0.5399735 0.30982068 -1.223396 -0.6353854 -0.28473958 -0.88119125 -0.4363872 0.26926023 0.5160854 -0.2681365
373 0.46045294 0.98619515 0.6127506 0.1571337 -0.2397162 -0.181595 -0.20729016 0.45881283 0.11864397 0.07659824 0.16631016 -0.13925786 -0.16982888 -0.21700089 -0.38143733 0.06805885 -0.48790136 -0.7267034 -0.76141405 0.06252516 0.2551048 -0.15324731 0.40112513 0.0003491189 -0.8270897 0.08452996 -0.16854645 -0.810822 -0.74939907 -0.17251779 0.18881807 -0.7655083
458 -0.088867486 1.5169249 1.0690409 -0.08248314 -0.26849186 0.41336814 0.21770836 0.7606979 0.6533975 0.17704605 0.61411166 0.6140902 -0.56399566 -0.7388083 -0.22426198 0.7805833 -0.81300217 0.59280866 -1.602039 0.44179574 -0.046444815 -0.6164327 1.2168226 -0.7344898 -0.85446787 -0.7296039 0.1333117 -1.1754166 -0.5540774 0.24877845 -0.35064018 -0.388035
383 0.2886505 1.4198982 0.6601261 0.2759086 -0.20134437 -0.12055166 -0.3638683 0.59957737 0.21780522 0.2178049 0.19245975 -0.07681192 -0.18597384 -0.38252077 -0.41599947 0.09812157 -0.5715637 -0.31942457 -0.8801226 0.29197696 0.00910738 -0.31809306 0.5953203 -0.15080068 -0.82711744 0.06010236 -0.26598254 -0.77355176 -0.8472451 -0.22684775 0.15626658 -0.60681474
422 0.6529753 1.2820567 0.34324864 -0.27033278 -0.23486422 0.0870233 -0.17530662 0.22403677 0.3140276 0.09320233 0.12654352 -0.2910745 -0.61998594 -0.27555963 -0.501975 0.46118408 0.08722881 -0.4916463 -0.6600486 0.43517897 0.41743454 0.08629365 0.46081036 -0.64671373 -0.6131917 0.02040897 -0.5419555 -0.8565299 -0.5383548 -0.44612715 0.47434407 -0.85187906
442 0.3094795 0.93717355 0.45878312 0.02631887 -0.8960934 -0.6358943 -0.5448509 0.3966194 -0.18683492 0.29192576 0.08754224 -0.079776846 -0.7187051 -0.38108066 0.22674373 0.4704769 -0.5088283 -0.44056153 -0.57310593 0.37264207 -0.08922485 -0.62524265 0.50844955 -0.44179493 -0.818736 -0.09390473 0.07174561 -0.59063995 -1.160237 -0.30713016 0.024110898 -0.6047126
505 0.7064053 1.1862128 1.0673558 -0.042036872 -0.07741946 -0.73614436 0.03308014 0.3916487 0.20455016 -0.18317087 0.19565678 0.33844066 -0.36534634 0.07355657 -0.52459127 0.2999417 -0.5078324 -0.33565623 -1.1291744 -0.07520447 -0.3033525 -0.3109806 0.7090234 -0.11092256 -0.9901929 -0.18431012 0.13105105 -0.5181937 -1.2959125 0.11230603 0.37777364 -0.2640445
435 0.15965757 0.8309495 0.632971 0.17080025 -0.6295496 -0.07980086 -0.6606724 0.28023973 0.006734179 -0.012018526 -0.1519652 -0.13129503 -0.5586204 -0.25553346 -0.1047952 0.12414051 -0.45245552 -0.47596866 -0.75744104 -0.24671705 0.16959405 -0.2765614 0.70236677 -0.29498005 -0.60742176 -0.31314453 -0.5551147 -0.77690727 -0.87546825 -0.30573863 0.33446816 -0.5290435
506 0.2697354 1.1252338 0.5546086 0.11833584 -0.42717034 -0.29370824 -0.60190463 0.5788245 -0.010077012 0.22869089 -0.05762043 -0.2664702 -0.5425713 -0.2936117 -0.030337334 0.16106386 -0.6971519 -0.25350997 -0.838144 0.19841848 0.25441563 -0.53370774 0.5324948 -0.31039712 -1.0691339 0.033462107 -0.078234866 -0.662813 -1.0808356 -0.023465065 -0.005953577 -0.5564772
396 0.38347504 0.6495443 0.60310745 0.07467452 -0.6996195 -0.32484517 -0.5834648 0.44855243 0.23019053 0.15249807 -0.0713925 -0.22313668 -0.8714328 -0.4851451 0.13143405 0.266303 -0.5344978 -0.22275242 -0.7695508 -0.16363707 0.40199104 -0.37847182 0.63962966 -0.3113238 -0.81477404 -0.3142235 0.11074371 -0.6493719 -0.9460207 -0.1329254 0.16919227 -0.7314794
363 0.39873666 0.55186665 0.5888 0.39368698 -0.7422211 -0.23753174 -0.35603714 0.44974875 0.14523745 0.051901273 0.40659168 0.38540417 -0.08956385 -0.13279422 0.14559203 0.33286795 -0.060800485 -0.5905978 -1.1710342 -0.48957872 0.3541746 -0.51454085 0.43375054 0.03903673 -0.8509864 -0.43869928 -0.22796677 -0.7699922 -0.9737835 -0.12803017 0.45445654 -0.490768
424 0.38723612 0.4670854 0.6056392 0.333138 -0.56326413 -0.73766077 -0.57724595 0.06738105 0.040932506 -0.18184027 0.32427853 0.8673947 -0.23067877 0.25297183 -0.17337035 -0.33564007 0.06663422 -0.77142906 -1.542472 -0.63366944 -0.24727094 -0.28038418 0.3231321 0.39751965 -1.2404298 -0.6314756 0.27566543 -0.5751401 -1.1662718 0.19634403 0.94377786 -0.06737895
474 0.50326514 1.1311028 0.40256295 0.20349306 -0.20590712 -0.50253165 -0.20171387 0.26207113 0.054125853 0.27687398 0.18722111 0.23062083 -0.23161335 0.055822022 -0.18673033 0.569529 -0.42997316 -0.5555335 -0.97234833 0.021141907 0.16923155 -0.19670111 0.61006707 -0.11031018 -0.6243514 -0.37053812 -0.4048236 -0.8476132 -0.71985537 -0.17294343 0.18671423 -0.4222451
477 0.39923328 1.0023031 0.44909227 -0.025990568 -0.3695518 -0.1705201 -0.2149241 0.47814116 0.10036069 0.1170084 0.10504469 -0.15631688 -0.623726 -0.26289484 -0.08407734 0.22354865 -0.32581854 -0.30555198 -0.8624767 0.06588485 0.31242225 -0.35061246 0.42843562 -0.1320538 -0.80127317 -0.2282817 -0.39154673 -0.61307555 -0.6235799 -0.13952357 0.24646795 -0.4394943
350 0.42571926 0.9359126 0.6568666 0.10634 -0.2072724 -0.22738498 -0.18625812 0.51393557 0.23407184 -0.0072141006 0.12616552 -0.08868778 -0.13862915 -0.13015835 -0.3845911 0.16145936 -0.5577906 -0.5488794 -0.660281 -0.020385155 0.19542861 -0.1366675 0.5777952 -0.1577626 -0.67340094 0.0484408 0.033251155 -0.5785009 -0.7867994 -0.18912555 0.14005166 -0.4478994
512 -0.027094847 1.506741 0.5124842 0.047269974 -0.32290846 0.120078646 -0.10469258 0.5448046 0.18183196 0.34011894 0.27895513 -0.35852212 -0.19372818 -0.18006115 -0.29973972 0.4062323 -0.5785894 -0.028424246 -0.79837376 0.4857967 0.2820399 -0.6449375 0.60879886 -0.41677627 -0.49073574 0.34407312 -0.39661944 -0.8986522 -0.6486792 -0.05099213 -0.2995044 -0.5639655
519 0.42029506 0.61178446 0.63380134 0.18861002 -0.7109668 -0.22826049 -0.37489423 0.43509215 0.18819271 0.050769877 0.31838796 0.2606068 -0.2807514 -0.190413 0.052194644 0.39354926 -0.17498358 -0.49373809 -1.0466526 -0.28856823 0.4061766 -0.44628185 0.46664655 -0.15844393 -0.7421006 -0.3816396 -0.14653453 -0.69672173 -0.9864023 -0.13172744 0.3469891 -0.5294204
462 0.47678378 0.71292 0.26641312 0.2191406 -0.469063 -0.06982166 -0.4253999 0.6211567 0.12534599 0.13398667 -0.06775387 -0.33492666 -0.6808844 -0.431426 -0.091547586 -0.031956874 -0.48292592 -0.18580739 -0.7451717 0.19682284 0.48445252 -0.196334 0.23320921 -0.0075009195 -0.8917711 -0.15113491 -0.17411058 -0.68837 -0.43536952 -0.18998003 0.05883993 -0.6683012
463 0.21175726 0.7752912 0.5258882 -0.036689337 -0.35136917 0.0135104675 -0.28964522 0.48528737 0.19057433 -0.05858823 0.17404297 -0.0297473 -0.3323067 -0.14063717 -0.080763906 0.23026909 -0.34967622 -0.07335652 -0.83489406 -0.10460216 0.27984998 -0.30091465 0.5995374 -0.2268094 -0.5881174 -0.173038 -0.08330088 -0.4897877 -0.68551075 -0.03161842 0.09350393 -0.3744028
418 0.37478667 0.52606505 0.5710469 0.04289736 -0.6445903 -0.36778954 -0.5351243 0.36927527 0.15840608 0.1551857 -0.017102377 -0.21335189 -0.7666423 -0.3693327 0.06669133 0.24580123 -0.54806733 -0.29349333 -0.7234865 -0.024436003 0.27212423 -0.3411747 0.5214481 -0.29294443 -0.75723255 -0.25067267 0.20441392 -0.5642012 -0.87865984 -0.03291019 0.06362194 -0.7221415
453 0.069127575 0.61574996 0.43731374 0.5936074 -0.6022634 0.33390507 -0.2889768 0.35573453 0.3031678 0.27022043 0.20573737 0.25334403 -0.45382896 -0.70820075 0.13740775 -0.27927828 -0.24533375 -0.43112442 -1.14728 -0.33179036 0.08586762 -0.4937361 0.5575305 0.471208 -1.0350702 -0.614982 -0.2712875 -1.2469625 -0.11273713 -0.33628187 0.26565504 -0.9374151
377 0.65711015 1.0202247 0.0901672 -0.23975052 -0.5814941 0.061471753 0.14887309 0.47588164 0.45074454 -0.4718293 -0.5017174 -1.0091503 -1.0225229 -0.10808402 -0.24346842 0.28984034 -0.8605416 -0.27481726 -0.7475126 0.47542706 0.71958417 -0.27590021 0.42387307 -0.32688004 -0.1652986 -0.13345543 -0.6009239 -0.31564644 -0.6579823 -0.24181342 0.042736273 -0.32412153
391 0.5753145 1.0068257 0.22337879 0.39462933 -0.30384535 -0.12743828 -0.39856663 0.50517285 0.30841187 0.06723217 0.06671404 0.044261064 -0.7490786 -0.58376753 -0.120953 0.12467364 -0.16734914 -0.18046917 -0.9278976 0.009838034 0.58391315 -0.2775275 0.21180427 -0.030521223 -0.9023821 -0.31449324 -0.17697218 -0.81602156 -0.50211066 -0.16230108 0.33310792 -0.5542993
339 0.36230022 0.963784 0.34024885 0.33166024 -0.3111738 0.1619302 -0.063955694 0.29867226 0.24488495 0.059288036 0.11211288 0.10535247 -0.31026056 -0.3261645 -0.10438452 0.26324502 -0.12654442 -0.3373188 -0.91913176 -0.2010146 0.506215 -0.21449947 0.2689409 -0.014126076 -0.6953756 -0.30798405 -0.40325224 -0.9025548 -0.39524978 -0.19378032 0.28893194 -0.5765479
437 0.44308904 1.1777885 0.1928688 -0.1817134 -0.5480161 -0.56134915 -0.423543 0.44023314 0.44567892 0.4408835 0.0878476 0.070431106 -1.1343329 -0.53176665 0.03996982 0.5261418 0.023462778 0.028631771 -0.58299506 0.23879401 0.14503016 -0.23209845 0.50312144 -0.47857702 -0.59967613 -0.22306205 0.1452324 -0.63983136 -0.652679 -0.38097093 0.23621622 -0.34204197
485 0.41203663 0.60457546 0.4890924 -0.011862214 -0.5192467 -0.16013765 -0.44175068 0.38098562 0.19075082 -0.15656465 -0.24118203 -0.1547913 -0.7515339 -0.23997629 -0.06325778 0.30764133 -0.45460057 -0.18363366 -0.7545409 -0.16058502 0.44304156 -0.21816404 0.5659138 -0.42851165 -0.5911833 -0.27923098 -0.12978499 -0.5932962 -0.8096759 -0.15121675 0.24126199 -0.51409036
511 0.050379183 1.4482422 0.4102969 -0.051833786 -0.27735627 0.12683596 -0.039651215 0.4678832 0.15098011 0.17181437 0.14137983 -0.26285577 -0.36516002 -0.15439004 -0.19581622 0.4107561 -0.41090414 0.08663337 -1.0363803 0.24620308 0.45391518 -0.59852386 0.54401493 -0.43521726 -0.5624128 0.05488371 -0.5632722 -0.9035926 -0.66594803 0.017556483 -0.06303143 -0.4502913
596 0.38421255 0.62504935 0.6600589 0.16152202 -0.45718035 -0.013598486 -0.18285151 0.39635068 0.3767248 -0.08132383 0.2094099 0.11959095 -0.12750989 -0.24313986 -0.11909452 0.3512676 -0.46769664 -0.32258388 -0.8429879 -0.12742528 0.27550516 -0.39342687 0.46891037 -0.20211291 -0.7488138 -0.09247509 0.29516754 -0.4214237 -0.8061811 -0.08711563 0.052908644 -0.5991327
341 0.27303338 0.8633304 0.43073812 0.060144164 -0.21098244 -0.12092246 -0.24019772 0.5300431 0.18126689 -0.047413673 0.05893208 -0.15459582 0.018228214 -0.028419722 -0.1605008 0.07749471 -0.4739583 -0.2792615 -0.7373078 -0.09663354 0.15264486 -0.2590133 0.5257789 -0.13650058 -0.63753927 0.09651532 -0.13158938 -0.48624653 -0.867246 -0.102358356 0.124590926 -0.37084395
444 0.3276574 1.14388 0.42030662 0.14754209 -0.6517 -0.36293513 -0.38096347 0.6750295 0.6499983 0.41312602 -0.065449364 0.088408045 -1.1829121 -0.50451034 0.21483144 0.49116698 -0.17697512 0.3536889 -0.60291743 0.052725606 0.3885615 -0.63343495 0.61734325 -0.24550943 -0.618561 -0.15119018 0.2694948 -0.62875754 -0.81102484 -0.18324839 0.1085308 -0.30261558
411 0.4642938 0.75802314 0.4562426 0.20186502 -0.40485737 -0.12056688 -0.36138466 0.2910868 0.14086139 0.022361055 0.057733715 -0.03226274 -0.36508688 -0.29249448 -0.13911942 0.18886891 -0.29681277 -0.47450033 -0.8219068 -0.1571562 0.35039797 -0.18880616 0.35356796 -0.039291926 -0.66800326 -0.1857351 -0.25578353 -0.61202806 -0.71129614 -0.17834981 0.2906025 -0.6426626
414 0.5109223 0.44177452 0.3976187 -0.04905758 -0.43297875 -0.50636023 -0.22116375 0.3285558 0.042426243 -0.26090345 -0.11622526 -0.120586045 -0.5540446 -0.10891257 -0.09525149 0.12340357 -0.45587888 -0.60850394 -0.7289038 -0.16401102 0.1089174 -0.11828932 0.38737905 -0.13283883 -0.65408516 -0.18934177 0.032973226 -0.3744084 -0.9562052 -0.06027521 0.25039855 -0.43768254
407 0.24766679 0.47981223 0.4591549 0.46422637 -0.7920388 -0.3478128 -0.35219258 0.56167996 -0.010351827 0.29339838 0.3414592 -0.009514642 -0.4798792 -0.08523943 0.12186883 -0.1207016 0.19202743 -0.54325825 -0.61386555 -0.6192053 -0.050024424 -0.40738872 0.5155411 0.50972104 -0.5396786 -0.4092147 -0.4633556 -0.67991704 -0.6309444 -0.23740211 0.46533462 -0.43540156
358 0.17022768 1.0475221 0.6505428 0.20574911 -0.3172743 -0.12843235 -0.3446374 0.36003566 0.1300714 0.3097644 0.19940023 0.07833115 -0.2565376 -0.14853413 -0.008789588 0.3715475 -0.3486251 -0.18963471 -0.73947877 -0.014521747 0.29281473 -0.48294285 0.43284804 -0.1341645 -0.62289125 -0.06227391 -0.26439756 -0.7615311 -0.73123246 -0.10385077 0.11180271 -0.38474408
547 0.4257273 0.58109796 0.444587 -0.03958372 -0.28398708 0.19834854 0.26308194 0.12968205 0.37840858 -0.20660806 -0.0373298 -0.0072405497 0.22297592 -0.14800125 0.06574691 0.40601686 -0.4265332 -0.40844354 -0.9764383 -0.6597636 0.66574407 -0.20653874 0.07056447 -0.46107417 -0.9209199 -0.17295827 0.117829435 -0.6565944 -0.7854072 -0.1703018 0.41594914 -0.35896322
420 0.48169005 1.1949255 0.05139408 0.16521463 -0.4882365 0.18408616 -0.063663945 0.40670696 0.44998163 -0.16683587 -0.37200624 -0.7632541 -1.0205345 -0.15358862 -0.2765939 0.1912753 -0.72352827 -0.023507973 -0.56085193 0.55775815 0.77673453 -0.38015005 0.3684894 -0.15450883 -0.1907812 -0.2300531 -0.8773806 -0.48330024 -0.4645918 -0.3695374 0.007304728 -0.26533854
371 0.75190437 1.0753078 0.09613473 0.3793895 -0.32100886 -0.22677591 -0.9640091 0.4826316 0.18349944 0.4040354 0.105835825 0.027366692 -0.90431035 -0.76743376 -0.37466666 0.26371408 -0.38310856 0.09420838 -0.5262039 0.6992663 0.5458521 -0.095424674 0.17475934 -0.500415 -0.9346037 -0.33995873 -0.21443836 -0.535121 -0.6500192 -0.18950067 0.09849547 -0.659575
461 0.41483817 0.99569577 0.4062504 0.19624892 -0.2032196 -0.15212049 0.0022250807 0.30174366 0.25718847 -0.05101403 0.15960619 0.2937823 -0.04890144 0.06838854 -0.115426674 0.32934618 -0.23412639 -0.32296294 -0.9728144 -0.29662856 0.30578017 -0.3283437 0.40038812 -0.09340541 -0.5535083 -0.21206313 -0.17304273 -0.5852431 -0.7842432 -0.024553394 0.3689964 -0.22238863
597 0.42147234 0.46683815 0.5136943 -0.027856397 -0.44131604 -0.1995411 -0.33911425 0.5468387 0.06321241 0.017067568 0.047974765 -0.119017415 -0.6690919 -0.35187033 -0.17322943 0.0142182065 -0.35704935 -0.39795828 -0.5936832 0.008467052 0.26145118 -0.060032737 0.35475537 -0.068205565 -0.7129987 -0.21039402 0.01940692 -0.48010933 -0.5528911 -0.064417325 0.16144945 -0.672503
337 0.28704482 0.7985509 0.3798988 0.38906184 -0.37813276 0.10933586 -0.18742427 0.2524875 0.17706937 0.18590564 0.21247248 0.1749439 -0.20169076 -0.31222913 -0.08987836 0.14721008 -0.13018136 -0.39066717 -0.8779945 -0.23479372 0.3166646 -0.27820283 0.26506984 0.12862319 -0.74060017 -0.27384663 -0.32194933 -0.87208426 -0.4046501 -0.14216389 0.24281372 -0.62084234
508 0.5021892 0.62314767 0.3871875 0.07006843 -0.35050565 -0.5375252 -0.13690071 0.36553636 0.14506273 -0.11674443 -0.066363044 0.13881458 -0.61602175 -0.035885468 -0.13992222 0.22376949 -0.3000312 -0.27120444 -0.78797483 -0.08825494 0.06216211 -0.23296194 0.42637804 -0.13223673 -0.70291245 -0.3286616 0.0062491857 -0.34647918 -0.790495 0.012134101 0.31052154 -0.19092952
404 0.2030889 0.6128314 0.50550365 0.3634511 -0.72307634 -0.25149733 -0.25462654 0.5861139 0.008898118 0.2648775 0.3447848 -0.11649584 -0.36818776 -0.034111947 0.04061378 -0.083235644 0.0169941 -0.53392684 -0.5316945 -0.4334098 -0.053562462 -0.38743138 0.5515738 0.39182368 -0.4724001 -0.21916547 -0.4413986 -0.6489569 -0.56637233 -0.25219914 0.29199913 -0.4205634
338 0.35310978 0.7635416 0.37109894 0.2586684 -0.3382475 0.040718753 -0.15382075 0.24484232 0.19948184 0.11716813 0.15225813 0.08947723 -0.21551245 -0.27767503 -0.11752036 0.2474619 -0.15908834 -0.34040266 -0.790341 -0.15354899 0.33101383 -0.23650713 0.307218 -0.06815744 -0.6398619 -0.20768894 -0.2529195 -0.7287568 -0.43799034 -0.16336405 0.22813214 -0.57019436
525 0.8357711 -0.07599801 0.381575 0.012497957 -0.6026906 -0.48452097 -0.050229106 0.31745106 0.04423262 -0.27707022 0.32774517 -0.93904465 -0.5724374 -0.085449025 -0.28003523 -0.16984245 -0.6339752 -1.363748 -0.592592 0.30415487 0.40674856 -0.27686477 -0.09088779 0.34238517 -0.77280444 0.43226212 -0.28897014 -0.38358194 -0.58799976 0.2471242 -0.22754766 -1.2646182
365 0.31323597 0.7323778 0.3390487 -0.027331028 -0.38927725 -0.050004844 -0.000773631 0.40619272 0.062705405 0.027486542 -0.08861025 -0.40191036 -0.5643681 -0.32498303 0.09797046 0.16547368 -0.48531035 -0.26484603 -0.75789165 0.1818538 0.46219057 -0.32256788 0.2756763 -0.13095416 -0.606289 -0.22729133 -0.3504444 -0.68101275 -0.3903089 -0.13108566 0.061822105 -0.50985676
496 0.30273902 0.5368351 0.6267721 0.012951141 -0.49969327 -0.39430845 -0.2707218 0.41392314 0.13828744 0.003005898 0.049018815 0.17083645 -0.4768409 -0.13072714 -0.045228124 0.33325163 -0.3542857 -0.1831043 -0.7509422 0.013275929 0.10432922 -0.42719254 0.56940156 -0.3964212 -0.6320273 -0.23608214 0.1562528 -0.51362115 -0.833405 0.0595279 0.08308936 -0.2976925
426 0.27221498 0.5553139 0.44013333 0.10662307 -0.52763844 0.021442873 -0.3650537 0.3740658 0.13400596 0.13305409 0.10613314 -0.2652524 -0.6001945 -0.31384185 -0.024489816 0.12687522 -0.37915292 -0.19578798 -0.69128776 0.04112044 0.38917696 -0.3494665 0.33559874 -0.10713958 -0.60494787 -0.09826304 -0.13991715 -0.62702477 -0.51427597 -0.040496763 -0.014008311 -0.72439545
498 0.21560518 0.10846499 0.42267105 -0.106773324 -0.59011346 -0.41607943 -0.4488618 0.1245939 -0.17264193 -0.035236817 -0.4786559 -0.63875127 -0.93979377 -0.080584876 0.043545403 0.28363296 -0.6561437 -0.47430664 -0.24007119 0.48878482 0.40757906 -0.19182158 0.5833659 -0.81654423 -0.588968 -0.04870854 -0.12164114 -0.533341 -0.7284381 -0.029870639 -0.044920467 -0.6980517
343 0.41008034 0.79654384 0.3429794 0.08048402 -0.26962328 -0.019696752 -0.01324093 0.20667693 0.18527612 0.062486667 0.117641926 0.028643468 -0.08909037 -0.10685323 -0.1120887 0.391009 -0.24628954 -0.3607903 -0.7828239 -0.08009825 0.39104944 -0.19924638 0.2729023 -0.233294 -0.6026621 -0.1280544 -0.24210829 -0.6022798 -0.46321657 -0.16814664 0.1849154 -0.4991713
445 0.20635599 0.5038293 0.47782466 0.21423762 -0.44772997 -0.15388128 -0.13591342 0.36321795 -0.01010792 0.08843887 0.2777753 0.15445422 -0.32135326 -0.24134445 -0.019631129 -0.004408538 -0.1824125 -0.24249364 -0.8075624 -0.12393145 0.15765691 -0.24174094 0.37399518 0.123806804 -0.7315057 -0.34057707 -0.14171158 -0.6850408 -0.36504424 0.015861806 0.22133839 -0.4606197
534 0.45716304 0.66970944 0.31704274 0.26224983 -0.35969067 -0.5949086 -0.7865163 0.5644708 0.28743935 0.13319926 -0.36707002 -0.15958832 -1.170227 -0.4727496 -0.017097343 0.43796083 -0.48969382 -0.1484849 -0.43373352 0.16773032 0.53878856 -0.23162131 0.5283158 -0.5532741 -0.68349725 -0.06415148 0.17414604 -0.40358117 -0.88878906 -0.15781468 0.06420356 -0.3716966
568 -0.003997007 1.2032195 0.89413667 0.21831144 -0.39254728 -0.33980215 -0.7277833 0.4517259 0.09700248 0.39884734 0.1826187 -0.15876809 -0.21582828 -0.18495773 -0.21403566 0.08593595 -0.42951214 -0.08704918 -0.6766919 -0.111375906 0.09517978 -0.38538235 0.6753765 -0.05204685 -0.61100006 0.1853531 -0.5423015 -0.6034008 -1.3044964 0.05273146 0.2904552 -0.28273633
577 0.7439315 0.21035682 0.43710303 -0.4680376 -0.3836862 -0.44183078 0.121994875 0.67804015 0.13197382 -0.63006604 0.025747318 -0.808779 -0.7654243 -0.35920975 -0.25489745 0.032288022 -0.5904997 -0.9545831 -0.5608219 0.117304854 0.43429127 0.13116409 0.25366303 -0.0683563 -0.73608416 0.006935397 -0.22523446 -0.21464248 -0.35716593 -0.018676212 -0.12081474 -0.9421512
353 0.33114228 0.77662 0.46829513 0.0390269 -0.32241353 -0.24257408 -0.29325154 0.29323187 0.09910473 -0.0033901841 0.05266291 -0.13676046 -0.45596352 -0.20454244 -0.21278746 0.22482301 -0.40815783 -0.41183072 -0.5895201 0.07257468 0.25000122 -0.16407742 0.41049182 -0.1696292 -0.46440962 -0.06303762 -0.19993764 -0.5140621 -0.72656375 -0.12049527 0.14382942 -0.5026005
359 0.09686071 0.9427813 0.5126169 0.042300567 -0.4103793 0.046326272 0.24281369 0.40514383 0.21678236 0.09364174 0.27948955 -0.17906944 -0.17555693 -0.07671998 -0.10910368 0.14077649 -0.4426113 -0.15671515 -0.4369328 0.22780238 0.15876296 -0.35546517 0.4694942 -0.18354653 -0.540315 0.12882258 -0.119342014 -0.5118317 -0.20013113 -0.04510685 -0.2079613 -0.20762146
551 -0.13040496 1.0218598 0.7670966 -0.2773172 -0.50462824 0.36320513 0.7957657 0.41304693 0.08697504 -0.03468825 0.50901884 -0.1446077 -0.12231422 -0.09598036 0.10143103 0.25428906 -0.3320212 0.19464234 -0.9243413 0.2868381 0.22375622 -0.73903555 0.2528347 -0.25041768 -1.0125813 -0.14289458 -0.26517785 -0.6795922 0.22639109 0.096059 -0.20433632 -0.20105469
510 0.28523776 0.8485784 0.46796757 0.14281459 -0.28435123 -0.16829276 -0.23538604 0.2777508 0.09353437 -0.01287364 0.006436504 -0.092290655 -0.4023466 -0.19253515 -0.16072106 0.25406083 -0.44257307 -0.27016273 -0.7425146 0.010683392 0.24200399 -0.21044369 0.44506994 -0.046756383 -0.47454274 -0.24428895 -0.43333247 -0.5097382 -0.71389496 -0.020685347 0.23555608 -0.24714445
587 0.28638974 0.6584249 0.391738 0.17946889 -0.3783555 -0.16548222 -0.2428278 0.3761082 0.23973882 0.19341543 0.16374661 -0.08141287 -0.36112612 -0.18329512 -0.07162333 0.20340732 -0.4412387 -0.2340882 -0.48250353 0.13384686 0.23687658 -0.35417944 0.27883425 -0.0984517 -0.6100102 0.17974563 0.1981133 -0.43870506 -0.60056436 0.018112699 -0.12640509 -0.4616828
499 0.3358546 0.6649939 0.35556367 0.103962325 -0.40262058 -0.17462981 -0.19754523 0.33010456 0.19023548 -0.03427129 -0.08176362 -0.1201604 -0.3299136 -0.11680395 -0.014830972 0.18247856 -0.36941025 -0.3013472 -0.66898656 -0.16969112 0.307535 -0.3084151 0.3399984 -0.21714163 -0.58117914 -0.09113609 -0.054780565 -0.4524973 -0.7129421 -0.12193646 0.20772442 -0.3352259
648 0.33743626 0.7559844 0.37975305 0.25336614 -0.25995752 -0.5114881 -0.3033996 0.28260195 0.024707414 0.08426645 0.097809546 0.34427658 -0.25340053 -0.013025624 -0.04682772 0.3279818 -0.34061715 -0.4227394 -0.8115904 -0.20105483 0.072064064 -0.27205485 0.48458743 0.06971708 -0.62925416 -0.40945742 -0.1410539 -0.69094354 -0.73873734 -0.08332128 0.22044569 -0.22117615
413 0.2702745 0.23030841 0.01309018 -0.10355778 0.011764457 0.034917828 -0.06413296 0.4463772 0.10648668 -0.4608839 -0.06681623 -1.0474545 0.0062896605 0.051143307 -0.38756624 -0.34449166 -0.7555093 -0.7883798 -0.0758799 0.1542457 0.021117875 0.24716936 0.64324623 -0.14557461 -0.115522124 0.7160018 0.030698108 0.09495998 -0.638628 -0.196425 -0.34089673 -0.8166883
797 0.20423763 1.0607463 0.45388544 0.5093679 -0.21868823 -0.21136022 -0.49694717 0.1371984 0.05683935 0.3548888 0.3129114 0.4455226 0.048677027 -0.041865185 -0.06295877 0.41661268 -0.35558638 -0.39993104 -0.81853265 -0.22428581 0.20543078 -0.40063834 0.4165094 0.16062087 -0.5474381 -0.22793481 -0.4182294 -0.93399125 -0.76833874 -0.19102915 0.2068657 -0.30128422
537 0.012179944 0.95796746 0.41431105 -0.01340024 -0.22609541 0.108326316 -0.075430535 0.47679457 0.15063941 0.23244205 0.21840647 -0.115477994 -0.15372084 -0.19684307 -0.0959861 0.22464344 -0.3336664 0.09088727 -0.6877354 0.22604287 0.12347833 -0.45481345 0.36785227 -0.25750464 -0.61772275 0.069505446 -0.14467606 -0.58997476 -0.4436309 -0.049157124 -0.12678967 -0.3525879
405 0.1934465 0.45204723 0.4423607 0.30008012 -0.62402177 -0.23931774 -0.2828622 0.4876684 -0.03090457 0.17177175 0.2970504 -0.035112206 -0.36481383 -0.07797586 0.057165112 -0.13980445 0.096424036 -0.5025344 -0.5346085 -0.47380862 -0.04125042 -0.31741288 0.4283268 0.40603998 -0.46836206 -0.31158063 -0.43995854 -0.570045 -0.5291128 -0.19475314 0.38603425 -0.37489945
560 0.3150026 0.8343741 0.46897215 -0.0044517317 -0.3508237 -0.11342311 -0.0829674 0.41189873 0.1876431 0.0761738 0.13187198 -0.18246557 -0.39114273 -0.15971582 -0.1707248 0.21731217 -0.3571692 -0.25478095 -0.48139298 0.21994852 0.26298854 -0.22360705 0.42855236 -0.20575194 -0.5002891 0.03608583 -0.13514206 -0.5295319 -0.4653047 -0.14667472 -0.03263638 -0.42640102
374 0.3833548 0.5791869 0.30806553 -0.022408856 -0.28166568 -0.20087393 -0.07648045 0.2211457 0.08806146 -0.044300523 -0.04560257 -0.23752528 -0.36553246 -0.19719937 -0.16853465 0.18613677 -0.33533767 -0.4557846 -0.5714664 0.10697224 0.23894715 -0.12670965 0.26385275 -0.24594411 -0.5822414 -0.039468043 -0.1876875 -0.51402545 -0.4869999 -0.121236466 0.14726752 -0.5843962
658 0.18908288 0.17221414 0.28400674 -0.107944146 -0.67533505 -0.10009658 0.06725949 0.4065982 -0.013626476 -0.27507034 0.3831538 -0.30874914 -0.5506616 -0.1805504 0.14782591 -0.2879566 0.50878084 -0.58969396 -0.8976299 -0.89206964 -0.0030139477 -0.27354574 0.12462296 0.6031391 -0.73808855 -0.5832655 -0.6335138 -0.52904224 -0.050708253 -0.09149937 0.6136958 -0.24772465
561 0.003466506 1.0053161 0.77655137 -0.36004925 -0.27620363 0.3745848 1.0746512 0.23859744 0.1521214 -0.18215217 0.3703543 -0.1898795 0.12810364 0.055307645 -0.12413276 0.29431844 -0.50686765 0.067495234 -0.8942069 0.44101596 0.19026041 -0.72848743 0.22004111 -0.253694 -0.82967365 0.077125385 -0.18057144 -0.61641425 0.24312258 0.2980418 -0.4130703 -0.28790194
425 0.3778137 0.67128986 0.36474657 0.13454308 -0.30287752 -0.088174395 -0.15355675 0.18268366 0.14881799 0.01849932 0.08866931 0.035550736 -0.27216133 -0.22092003 -0.101052 0.22478569 -0.18717702 -0.3429481 -0.7672463 -0.13859084 0.2877664 -0.16216543 0.26356244 -0.05887729 -0.6239063 -0.22297639 -0.22875366 -0.55472815 -0.46556926 -0.13143507 0.2663552 -0.48101583
548 0.2588289 0.41404018 0.3993023 0.08029806 -0.26815906 -0.060594864 -0.19455236 0.31964678 0.023479916 -0.056735907 0.17721923 -0.21200806 -0.120237 -0.08429134 -0.040279787 -0.014102623 -0.3529202 -0.48305854 -0.62836766 -0.10896584 0.14626226 -0.219896 0.20300402 0.060548056 -0.65005136 0.08889885 -0.09081263 -0.44940174 -0.5986386 -0.021077188 0.09028872 -0.57871294
381 0.2805436 0.7670846 0.4230565 0.09045886 -0.32148457 -0.13603331 -0.1757017 0.28073725 0.08139635 -0.009413153 -0.0068246466 -0.1481153 -0.3397169 -0.17970464 -0.06999175 0.23837164 -0.38168228 -0.2809199 -0.7025807 -0.012135155 0.28479242 -0.25618276 0.38257438 -0.065031506 -0.5144447 -0.16753717 -0.35552078 -0.47509024 -0.6621956 -0.046899218 0.20754841 -0.28828335
440 0.3540593 0.61247003 0.2733909 -0.055602603 -0.38159928 -0.14029677 -0.1540667 0.2927512 0.12475874 -0.042184353 -0.17187321 -0.26310778 -0.46883166 -0.2045641 -0.039579544 0.26018602 -0.40465257 -0.28288358 -0.5327988 0.06849036 0.3606311 -0.1834939 0.39052007 -0.31829768 -0.42579514 -0.10038887 -0.16881327 -0.4035002 -0.56174767 -0.19281842 0.07811398 -0.36675635
824 -0.034939718 1.0181243 0.6435142 0.9914272 -0.44817632 -0.36056244 -0.7137976 0.34989837 -0.049407683 0.8729139 0.48221475 0.68027717 -0.28366867 -0.0023611733 0.059797063 0.21766204 -0.35611525 -0.25361377 -0.38870206 -0.46777505 -0.19065823 -0.42310908 0.8079945 0.21365307 -0.51927763 -0.2925385 -0.35502568 -0.85884154 -0.9132452 -0.049786314 0.34130841 -0.19727404
342 0.33612317 0.65036386 0.31141797 0.14573309 -0.30505896 0.054511707 0.0470321 0.15520534 0.16713168 0.01964707 0.13086893 0.10551476 -0.16825992 -0.25583744 -0.03608611 0.21096452 -0.090805486 -0.31754276 -0.83422184 -0.20228 0.33026654 -0.18715252 0.1690003 -0.03100703 -0.68129545 -0.28921998 -0.23856969 -0.66280967 -0.2945074 -0.13288695 0.28547242 -0.4749354
415 0.533487 0.52232563 0.2697619 -0.2042885 -0.25777677 -0.27397886 0.10903045 0.24316628 0.10517237 -0.32507527 -0.16408771 -0.322656 -0.50544846 -0.075241886 -0.122746065 0.3122677 -0.43304333 -0.39701915 -0.67113775 0.13812688 0.29971945 -0.08960623 0.28558818 -0.2917842 -0.4657696 -0.091548674 -0.12502128 -0.28697318 -0.6195443 -0.009511061 0.14323698 -0.38370785
559 0.1981303 0.6201682 0.3598959 0.0045630005 -0.42311972 -0.22694632 -0.21888457 0.2698464 0.01235306 0.01103596 -0.088235855 -0.23251468 -0.48224506 -0.15260689 -0.054923177 0.22957096 -0.46394873 -0.31242615 -0.41137218 0.20753582 0.2527182 -0.23265037 0.41834387 -0.3570117 -0.35535505 0.0011616099 -0.23364738 -0.52127683 -0.607033 -0.09734379 -0.026297087 -0.4159483
393 0.19301939 0.46211717 0.33358002 -0.15670863 -0.41469368 0.00913162 -0.016173568 0.4105784 0.013187919 -0.17584789 0.19513804 -0.23242755 -0.4651862 -0.22879669 0.12278953 0.079260044 -0.0633029 -0.2102344 -0.8488036 -0.29489166 0.25514725 -0.32676342 0.23728077 0.03303906 -0.81215686 -0.3553824 -0.37106025 -0.577389 -0.23710658 -0.046162635 0.24621701 -0.42987722
749 0.36244032 0.22491294 0.3592531 -0.22942558 -0.38522273 -0.29856515 0.080174066 0.45177153 -0.059856683 -0.28767642 0.0005576573 -0.37669882 -0.42557094 -0.10199432 -0.09841847 -0.0343402 -0.4203867 -0.6501726 -0.51026607 0.08042765 0.15526742 -0.08311681 0.25405818 -0.06417663 -0.60711 -0.013517268 -0.04806118 -0.3030745 -0.4474806 0.011751757 0.030731991 -0.5934636
364 0.28991115 0.34408697 0.24478671 0.0041562226 -0.59609663 -0.31301153 -0.3569708 0.41961643 0.14909357 -0.04229393 0.042170916 -0.22309779 -0.7259275 -0.30733913 0.16355838 0.03827107 0.20236102 -0.31389847 -0.594385 -0.43831995 0.2004412 -0.25366625 0.21665634 0.13604908 -0.5863318 -0.3866368 -0.3314679 -0.4550232 -0.38149285 -0.27390566 0.4299376 -0.30674174
554 0.20175248 0.9215875 0.24577682 0.33133894 -0.3727532 -0.1938763 -0.13075398 0.17586146 0.022427116 0.47202337 0.14723094 0.10603825 -0.25563717 -0.056791134 -0.048345175 0.25780347 -0.09235236 -0.26149145 -0.4204678 -0.037358824 0.043659285 -0.2967273 0.45191145 0.0053733108 -0.32401517 -0.20480616 -0.4475219 -0.61926204 -0.383378 -0.26901245 0.16859445 -0.28391427
369 0.22365518 0.6651239 0.4275373 0.06898513 -0.37780547 -0.11430961 -0.011510455 0.30824128 0.107002616 0.08304583 0.17458494 -0.1548647 -0.22416955 -0.1499739 -0.13628106 0.17473836 -0.36799183 -0.32443535 -0.4627083 0.18167272 0.15527566 -0.23477782 0.37412843 -0.11337552 -0.5029119 0.02863738 -0.13887839 -0.5172172 -0.32586136 -0.10197654 -0.08212162 -0.43320417
565 0.1727559 0.64203346 0.4282555 0.48527935 -0.34124345 -0.13499328 -0.42275202 0.1830381 0.05905422 0.2760143 0.20522115 0.3005025 -0.10574551 -0.062597826 -0.030158058 0.054043964 -0.22067548 -0.44770586 -0.67079145 -0.26992512 0.10219401 -0.24679464 0.33459044 0.24651714 -0.4816584 -0.15372735 -0.2360474 -0.71236104 -0.64005387 -0.12003994 0.19170621 -0.31394574
439 0.27638075 0.78108925 0.40298817 -0.010960318 -0.29283682 0.10628473 -0.10556391 0.23332964 0.24684973 0.08498437 0.027980382 0.056952965 -0.48211253 -0.23596896 -0.0884498 0.4234668 -0.12520702 0.103889726 -0.7219584 -0.001173495 0.47785175 -0.18848975 0.34741214 -0.36930582 -0.36325315 -0.26596448 -0.22105636 -0.5828028 -0.38657856 -0.09981604 0.13710815 -0.37585196
470 0.052134518 0.69982815 0.4159385 0.14250967 -0.34310034 0.03167903 -0.04178968 0.32261854 0.06263735 0.1706465 0.20605469 0.118059434 -0.13185918 -0.0012246589 0.038651366 0.17742576 -0.20386174 -0.12674005 -0.59290653 -0.17502606 0.123273484 -0.35980076 0.34540343 -0.03453454 -0.550938 -0.17670792 -0.13612841 -0.5515701 -0.3513616 -0.05737841 0.07669409 -0.24541236
509 0.406378 0.13366312 0.33026734 0.070560485 -0.42238078 -0.3574502 -0.22913618 0.22564621 -0.019954292 -0.07884656 0.114588566 -0.38393593 -0.41807365 -0.09076253 -0.072791256 0.012248307 -0.35546938 -0.721554 -0.46517345 0.034668617 0.18312815 -0.23304002 0.14484572 0.1632754 -0.5210303 0.06392789 -0.14089742 -0.33426556 -0.6003972 0.07437428 0.020581778 -0.61463076
472 0.08770111 0.6735815 0.42416772 0.10594808 -0.37287635 0.019594552 -0.1137551 0.2789352 0.10576683 0.20048061 0.1687223 0.107074276 -0.33221677 -0.13669187 0.03377195 0.1979239 -0.12283711 -0.032816432 -0.6202264 -0.1416185 0.18732359 -0.36643773 0.34753153 -0.09586066 -0.491386 -0.2520283 -0.19492489 -0.57419103 -0.3495855 -0.067893825 0.10195758 -0.24446172
432 0.11607702 0.75594616 0.6348711 0.28629547 -0.28917086 -0.3376784 -0.5645 0.26661325 -0.03873077 0.11808698 0.05536832 -0.052835107 -0.24986038 -0.17937969 -0.14141236 0.017681178 -0.42865703 -0.46909967 -0.4574297 -0.057940975 -0.082082614 -0.2749286 0.43830264 0.059073854 -0.45428285 0.09372454 -0.26449308 -0.4009599 -0.9932493 -0.052432317 0.2441262 -0.3733474
345 0.25187522 0.7629637 0.3654374 0.1182768 -0.2333854 0.05328652 -0.0023749766 0.2199245 0.20161593 0.028540965 0.14032707 0.069027014 -0.18240948 -0.17589633 -0.092255816 0.25773245 -0.13801953 -0.16573793 -0.7255546 -0.11836254 0.32822183 -0.2399651 0.27819622 -0.094759226 -0.48053932 -0.19223954 -0.25203916 -0.55231464 -0.37153837 -0.06906127 0.21617076 -0.32279742
585 0.28148028 0.6371671 0.27608 -0.1920719 -0.19744925 -0.025860291 0.16173224 0.28083718 0.08226974 -0.17325297 -0.018553445 -0.17125107 -0.30194768 -0.0687339 -0.03244223 0.33291838 -0.36302012 -0.13238865 -0.6932311 0.10617324 0.3172062 -0.22589755 0.24869244 -0.26484305 -0.5425478 -0.11745311 -0.17302547 -0.39635122 -0.38192087 0.050427705 0.050420795 -0.2787799
430 0.1955102 0.7437657 0.17745268 -0.17719223 -0.12658311 -0.030938454 0.29585665 0.080019146 0.14673904 0.15657796 -0.0012576993 -0.2595393 -0.26425803 -0.18654384 -0.24627718 0.44375643 -0.13284846 -0.1866171 -0.48281202 0.35874307 0.23035361 -0.03307005 0.18963441 -0.36306804 -0.26387158 -0.08834608 -0.4638668 -0.37506518 0.08541406 -0.27364922 0.06005607 -0.40091932
375 0.3404879 0.53081673 0.3540094 0.1414304 -0.20822416 -0.15754423 -0.16910909 0.25855088 0.09700554 -0.028001307 0.13445772 -0.057077453 -0.19199383 -0.15338217 -0.21101113 -0.008097574 -0.27762356 -0.46465284 -0.5753935 -0.023863167 0.07679964 -0.15061194 0.25573894 0.124013014 -0.51929855 -0.02324127 -0.12966798 -0.46907654 -0.5119606 -0.03510407 0.15364425 -0.46320346
518 0.11318905 0.5860463 0.43796372 0.054986287 -0.34578076 0.107545905 0.002365389 0.34322953 0.2140886 0.082782015 0.16273932 -0.01822805 -0.29783767 -0.33685085 -0.04493598 0.14613183 -0.26635292 -0.056438997 -0.6613052 0.07434309 0.14577892 -0.36935 0.33883524 -0.08109222 -0.612399 -0.18832698 -0.037390746 -0.5803192 -0.23638938 -0.029198173 -0.047895085 -0.4535429
507 0.20196791 0.1556469 0.21230023 0.08972379 -0.3021694 -0.07326362 -0.09236545 0.2864114 -0.09232463 -0.029586677 0.08734727 -0.16825025 -0.24163692 -0.29159376 0.059054192 -0.15469088 -0.19109991 -0.2937401 -0.5393941 -0.13941701 0.18847394 -0.035903018 0.1462858 0.2427998 -0.588664 -0.12719254 -0.1654712 -0.4997123 -0.16507584 -0.072893314 0.177258 -0.5933939
389 0.19418891 0.6032145 0.38083008 0.09376994 -0.31201673 -0.020420123 -0.22799698 0.2877911 0.16394658 0.09947673 0.123178445 0.12354538 -0.40650573 -0.30842865 -0.036666367 0.22258404 -0.19536892 0.047300264 -0.5732928 0.022910772 0.26043233 -0.27899837 0.28725803 -0.18263152 -0.57094955 -0.25882444 -0.041854125 -0.4080692 -0.3613835 -0.04647721 0.072276555 -0.24679844
531 0.24579938 0.8973162 0.20493677 -0.1417992 -0.04899549 0.17771469 0.28986555 0.25748628 0.15343265 -0.12876694 0.13190676 -0.34759712 -0.24850623 -0.1329048 -0.15546773 0.32261723 -0.22136158 -0.20825508 -0.65509224 0.22355755 0.4618899 -0.22142087 0.15067269 -0.19695285 -0.23523518 0.020580847 -0.5214563 -0.57053256 -0.15632857 0.018424679 0.049751323 -0.3822151
552 0.22017752 0.33453193 0.3508461 0.044479724 -0.51215357 -0.1654205 -0.04112701 0.32120362 0.07665351 -0.16947447 0.22980858 -0.12642917 -0.27433884 -0.11882324 0.112954244 -0.059594095 0.20607542 -0.4572174 -0.69819736 -0.60162556 0.10485253 -0.23070788 0.17242841 0.31060946 -0.61004686 -0.39263716 -0.42908978 -0.49225816 -0.2700611 -0.18807319 0.45626557 -0.26903108
433 0.15481058 0.68576723 0.45233282 0.17981249 -0.34071717 -0.3231626 -0.39724433 0.24277154 -0.011804617 0.123007484 -0.016002582 -0.10495172 -0.31780824 -0.15787515 -0.08667837 0.11553789 -0.36438134 -0.38970426 -0.41520086 0.010480875 -0.012385003 -0.22675939 0.38209158 -0.04682371 -0.42134026 0.027780585 -0.24264109 -0.4016798 -0.7888744 -0.10164931 0.17435096 -0.36946252
460 0.25655833 0.59351975 0.3145141 0.010070455 -0.23185354 0.12817384 0.29172507 0.18813828 0.21086761 -0.09999245 0.12517469 0.019796772 -0.122847706 -0.20176142 0.009024888 0.1846048 -0.18035565 -0.15081015 -0.77186626 -0.2004477 0.3191058 -0.27451798 0.07784823 -0.15247416 -0.7741854 -0.22904113 -0.034469783 -0.5300683 -0.20984052 -0.03405764 0.19410954 -0.33325216
360 0.06396536 0.8859066 0.41644055 0.0016755597 -0.1784557 0.09106862 -0.01072253 0.27172026 0.114320375 0.1998854 0.12850791 0.06746597 -0.14292483 -0.06290699 0.013370458 0.31085995 -0.2924359 0.03970803 -0.6401904 0.06368515 0.31296417 -0.3743841 0.27870348 -0.22216478 -0.48238 -0.10032377 -0.1718548 -0.57945883 -0.40142632 -0.002569476 0.028708804 -0.23589817
580 0.2659267 0.5656449 0.2641404 0.13727786 -0.35046574 -0.08000603 -0.29410633 0.29249012 0.14581877 0.06086985 -0.11519574 -0.14304465 -0.60394615 -0.3186746 -0.054985885 0.12885746 -0.28546128 -0.05792146 -0.52290565 0.057393078 0.30704492 -0.18188031 0.27859035 -0.15371786 -0.4640693 -0.14148888 -0.21328142 -0.46523494 -0.40579695 -0.13449991 0.109697774 -0.37571073
602 0.2450887 0.5126967 0.35138795 0.33478284 -0.36687964 -0.14843446 -0.3331039 0.24837549 0.034476254 0.30702034 0.22360429 -0.054918803 -0.3290769 -0.107218266 -0.010807701 0.05459464 -0.26676813 -0.41429678 -0.39444476 -0.006715114 0.116404615 -0.25544688 0.25573984 0.08417303 -0.47428358 0.034098893 -0.072743654 -0.5174536 -0.47891134 -0.048581507 0.05983402 -0.50229347
668 0.43215427 0.3382139 0.33666438 -0.304726 -0.1098077 -0.39037043 0.39055216 0.304329 0.042077333 -0.3682717 -0.008901753 0.07598975 -0.3010767 -0.08084746 -0.046603087 0.19587912 -0.19515751 -0.196724 -1.0186169 -0.08959714 0.049441237 -0.16006966 0.16053917 -0.073976815 -0.8969138 -0.5047418 0.070920736 -0.3988828 -0.2543567 0.18930626 0.19338745 -0.33790892
653 0.22899865 0.33785844 0.2539622 0.065058984 -0.2532953 0.063245 -0.049289186 0.21160972 0.07788135 0.036792614 0.081142925 -0.031090261 -0.2977517 -0.27711514 0.058744177 0.10377143 -0.10526853 -0.07558188 -0.6915645 -0.13541698 0.30998147 -0.13607414 0.11839492 -0.05511585 -0.65395945 -0.23781852 -0.10461132 -0.5329767 -0.20213981 -0.042814657 0.22240984 -0.44990727
412 0.22770242 0.46845222 0.39991122 0.032248724 -0.3498812 -0.111560926 -0.3089353 0.27468598 0.1654823 0.05782537 0.033227168 0.11685253 -0.47072664 -0.24582799 -0.00030928996 0.22185533 -0.12349406 0.012041619 -0.57403684 -0.1434379 0.23260394 -0.18342872 0.35589936 -0.20553775 -0.4205397 -0.27675715 -0.018783784 -0.40429908 -0.48320594 -0.059020672 0.16909806 -0.28681466
385 0.13992754 0.51017714 0.35682964 -0.07031435 -0.3367289 -0.04929795 -0.008645431 0.27580893 0.0049674236 0.025344014 0.10416242 -0.22141431 -0.25349376 -0.07039987 -0.0012623757 0.10754121 -0.33179483 -0.25241175 -0.4478372 0.105177216 0.15034714 -0.30958465 0.28522134 -0.12675045 -0.45678335 0.047060356 -0.14125781 -0.39850602 -0.40353864 0.00027753992 -0.049606517 -0.32097742
447 0.26380658 0.50947195 0.3858727 0.07668438 -0.2888679 -0.06061603 -0.11812453 0.20583916 0.17124963 -0.03294651 0.08284442 0.112755716 -0.19612655 -0.19319487 -0.018298894 0.19317244 -0.1693322 -0.16617392 -0.6770264 -0.24095263 0.2376011 -0.21014519 0.25722456 -0.1528619 -0.5323989 -0.21553797 -0.021903802 -0.41209757 -0.4594845 -0.06299999 0.2007032 -0.29572022
468 0.2450277 0.22709578 0.27999675 -0.12802714 -0.059099324 -0.21635325 0.07151384 0.1823451 0.0037935995 -0.22052248 0.15447628 0.3761281 -0.26599568 -0.015122982 0.07590658 0.135452 0.029107628 0.006117466 -0.85348326 -0.2839371 0.00907514 -0.16160806 0.24148624 -0.020523308 -0.71373487 -0.5723727 0.17380075 -0.19707896 -0.35916924 0.2349965 0.33916393 0.06735736
452 0.24543686 0.3701173 0.42842466 0.011947802 -0.28330553 -0.188591 -0.2357826 0.24890886 0.06129039 0.02634091 -0.0020093168 0.019463794 -0.38479805 -0.15336394 -0.03821391 0.18024349 -0.2592362 -0.13190268 -0.49596667 0.010557773 0.12893334 -0.18498027 0.3220606 -0.25495914 -0.46313614 -0.13963489 0.053357854 -0.39473245 -0.5516953 0.0038154917 0.1041747 -0.3194022
357 0.18367557 0.37371758 0.22769381 0.10233261 -0.34931198 0.050557636 -0.057306807 0.2931429 0.13876197 -0.049915202 0.07048676 -0.11998773 -0.3454676 -0.27192083 0.007097636 -0.03797372 -0.24693732 -0.2849378 -0.62320566 -0.089250356 0.14595596 -0.22127 0.2613692 0.09698461 -0.56320363 -0.220262 -0.17481135 -0.5314869 -0.19624954 -0.11812987 0.10874538 -0.5300451
408 0.31983083 0.5543727 0.23551886 -0.1871553 -0.21858703 -0.059572123 0.08847227 0.30075067 0.13743314 -0.094109595 0.08514271 -0.29503736 -0.37397143 -0.26510176 -0.1541754 0.17486486 -0.08356375 -0.23379317 -0.52787673 0.04394809 0.20867221 -0.097087495 0.22059962 -0.11448154 -0.46196055 -0.13037156 -0.4197016 -0.43580174 -0.12536615 -0.18845254 0.1483053 -0.446816
540 0.27539372 0.5604124 0.33152232 0.019725114 -0.2067123 -0.08429975 -0.24363285 0.24152322 0.10851123 0.009003162 0.008320802 -0.07140336 -0.30203038 -0.20274253 -0.13353054 0.076857135 -0.21887158 -0.2114308 -0.48698902 -0.048687883 0.21348956 -0.092465326 0.32930958 -0.14108759 -0.3836292 -0.12657508 -0.1559164 -0.4196468 -0.4631236 -0.1555258 0.17135242 -0.37577945
409 0.19659933 0.50590926 0.3732147 0.020887908 -0.26310128 -0.14392905 0.008151639 0.19936103 0.11020181 -0.02790914 0.17245369 0.29851103 -0.2852097 -0.05446542 -0.027130721 0.102010794 0.021233805 -0.08764635 -0.8319667 -0.18031546 0.08628203 -0.285556 0.20984365 0.022334868 -0.6328455 -0.34791315 0.0111786 -0.3779776 -0.37813848 0.09935441 0.33319154 -0.092139184
380 0.25993323 0.5393045 0.3745597 0.05593921 -0.2413993 -0.106937155 -0.23279543 0.2851174 0.1113926 0.017289871 0.041501395 -0.05005813 -0.32913736 -0.18746012 -0.10237122 0.13913663 -0.22964786 -0.16237786 -0.4817318 -0.05104434 0.2503134 -0.11834881 0.36123294 -0.16476893 -0.30082643 -0.14142819 -0.13908069 -0.3917246 -0.53599834 -0.119235404 0.17650956 -0.3205736
431 0.20517083 0.7193225 0.21225189 -0.11930778 -0.1113656 -0.03764008 0.244692 0.08016343 0.12656265 0.094145454 0.04732996 -0.14655203 -0.20086399 -0.10985047 -0.19203989 0.3652326 -0.1259639 -0.17219691 -0.49770007 0.19755624 0.19831727 -0.05327983 0.18141055 -0.24464688 -0.30596828 -0.11318283 -0.4273767 -0.39125004 -0.0056785587 -0.20854206 0.102992706 -0.30811092
419 0.21243003 0.54236907 0.2402445 -0.0900706 -0.22044468 -0.060708728 0.07840858 0.29938212 0.108027324 -0.12307218 0.06448247 -0.19076033 -0.26665583 -0.12418187 -0.028841501 0.11287378 -0.2730392 -0.22390659 -0.64640045 -0.030945107 0.2046189 -0.20712215 0.2351819 -0.06961624 -0.47819048 -0.08850332 -0.19481638 -0.43679065 -0.32753012 -0.023843782 0.06299704 -0.39629745
448 0.25404924 0.47192916 0.3443287 0.06866863 -0.23598793 -2.8404113e-06 -0.09539306 0.2331756 0.1530512 -0.05301273 0.090766475 0.073006906 -0.12543991 -0.1605879 -0.02362888 0.111661635 -0.15128867 -0.19678268 -0.61849856 -0.21407066 0.2329259 -0.17984988 0.2271504 -0.11352185 -0.48523033 -0.15059747 -0.038503677 -0.38899615 -0.44681245 -0.09897144 0.19865651 -0.30318588
388 0.2521334 0.7673227 0.3542911 0.050069775 -0.2105402 0.008741047 0.013292245 0.14773196 0.1485313 0.065832056 0.13708004 0.01045547 -0.24517903 -0.18303971 -0.17417392 0.26341185 -0.12322831 -0.13836351 -0.58916324 0.06024101 0.26368162 -0.20240772 0.23118089 -0.17406256 -0.4111947 -0.13099778 -0.31992638 -0.48996675 -0.2876775 -0.13608614 0.145749 -0.30724922
467 0.29469514 0.1176573 0.19696414 -0.17455041 -0.045256753 -0.23744757 0.144103 0.14936894 -0.03935235 -0.2952081 0.09749905 0.2488499 -0.17203358 0.037908524 0.06331802 0.04491405 0.003630431 -0.1286262 -0.7983786 -0.33679986 0.011106898 -0.08814415 0.1771431 0.04841878 -0.69234085 -0.46825057 0.18086879 -0.123738304 -0.36496344 0.24829431 0.343641 0.03441958
361 0.23471569 0.6633305 0.3365921 -0.0061385366 -0.11887726 -0.098471165 -0.0423518 0.17999129 0.07670785 0.0448091 0.07923158 -0.0053500785 -0.12989828 -0.0877114 -0.15721162 0.20218496 -0.20243935 -0.20526123 -0.54980963 0.036993433 0.16494258 -0.14899006 0.20807515 -0.14181365 -0.45025596 -0.047630284 -0.24949326 -0.41534364 -0.43319777 -0.022989504 0.1751932 -0.28446835
395 0.37168956 0.27304578 0.22665349 -0.13795997 -0.06579899 -0.3600937 0.15807742 0.24614082 0.049359683 -0.2847899 0.0517191 0.176095 -0.33718976 -0.08223535 -0.00060183665 0.15572825 -0.0941939 -0.15965842 -0.8430078 -0.17333874 0.07408646 -0.09927322 0.13402317 -0.038463898 -0.7192278 -0.4174007 0.14528297 -0.26015833 -0.40032142 0.15766911 0.31085706 -0.1546026
473 0.11197986 0.5722169 0.31419328 0.037940413 -0.2604803 0.011670483 -0.024229852 0.23212361 0.07305023 0.090283476 0.13222466 0.03720665 -0.27778673 -0.119387485 0.021801023 0.15643173 -0.11373079 -0.05180041 -0.53769827 -0.08954031 0.14405085 -0.26747495 0.2348343 -0.055227585 -0.43769443 -0.1972887 -0.19169283 -0.4532638 -0.25554284 -0.05038532 0.11254195 -0.21669225
400 0.17911662 0.20444974 0.1728998 0.05339868 -0.2356876 -0.033152245 -0.0022373341 0.2609299 -0.013033082 -0.06496391 0.077479996 -0.17937388 -0.15721583 -0.21035627 0.016996644 -0.089159414 -0.18252808 -0.26938573 -0.48220482 -0.087047786 0.14410277 -0.07623609 0.14076008 0.15127778 -0.4857154 -0.092723854 -0.18152182 -0.42086625 -0.126444 -0.06696786 0.11864593 -0.48128745
397 0.026984062 0.8514884 0.5153289 0.115222365 -0.17874108 -0.009660088 -0.23473382 0.23098703 0.111801855 0.20291719 0.13414493 0.015425989 -0.16883399 -0.18466781 -0.15249324 0.20589647 -0.25901073 -0.012286588 -0.49524468 0.04341135 0.11039524 -0.2441115 0.36622995 -0.119501516 -0.34636903 -0.072915725 -0.35924596 -0.44992292 -0.5235042 -0.03805459 0.10080091 -0.19613463
421 0.2653928 0.34342408 0.2914058 0.12849033 -0.19063367 -0.19373064 -0.2023535 0.23121223 0.050695416 -0.07039959 0.11455386 0.067572325 -0.11981477 -0.04740072 -0.08399866 -0.025202539 -0.13103418 -0.33442065 -0.5643725 -0.22577117 0.028706074 -0.11517943 0.26606867 0.08891688 -0.44973394 -0.13858163 -0.03448238 -0.2833702 -0.500697 -0.05153076 0.25136855 -0.26362634
571 0.15195003 0.6348246 0.36053476 0.123387896 -0.23223776 -0.050583284 -0.14251223 0.32629043 0.06961413 0.09459125 0.13408148 -0.09142824 -0.15289007 -0.13269474 -0.12311871 0.08660664 -0.3411106 -0.19774066 -0.34671965 0.14427663 0.12045573 -0.23455471 0.28144968 -0.062543206 -0.42608228 0.09768399 -0.0837736 -0.36874846 -0.3797621 -0.04150271 -0.06191026 -0.29387125
522 0.20982058 0.6035643 0.33171445 0.0743449 -0.19716714 -0.12308697 0.050253242 0.1913514 0.091533296 0.08015129 0.11356606 0.17157342 -0.23872048 -0.07624418 -0.08912062 0.21177119 -0.15461214 -0.108598076 -0.54906374 -0.025558665 0.09499852 -0.17503087 0.27542996 -0.08797807 -0.4724285 -0.25834474 -0.09023338 -0.45533535 -0.26334265 -0.037492473 0.12143224 -0.18269958
459 0.18637428 0.34433332 0.23386675 0.0660905 -0.27467552 0.0039171297 -0.0102485325 0.1981132 0.09762347 -0.02644646 0.011521442 -0.051981024 -0.29076228 -0.2028755 0.02511511 0.05624601 -0.16056338 -0.2272874 -0.53905386 -0.11009872 0.18304983 -0.19761805 0.22552063 0.016876692 -0.4844975 -0.22025606 -0.14941601 -0.48539886 -0.19477876 -0.0946084 0.13722456 -0.3843546
443 0.2484682 0.37090433 0.26423776 -0.005770072 -0.27621537 -0.13759527 -0.17305036 0.21342397 0.0904123 -0.015161623 -0.0168558 -0.09120367 -0.33961162 -0.16229993 -0.04829788 0.16268127 -0.30790812 -0.1883827 -0.3918926 0.049583513 0.18867663 -0.14698604 0.2339657 -0.19641119 -0.37349975 -0.094982885 0.03747254 -0.2756289 -0.42200157 -0.047840133 0.015115797 -0.31649053
344 0.2580625 0.47068068 0.2728069 0.057501853 -0.20048499 -0.04211271 0.024792086 0.17377429 0.13921136 -0.07618518 0.095213905 -0.0069454443 -0.080382325 -0.102648124 -0.07329692 0.15177959 -0.18450905 -0.26726478 -0.5267343 -0.07756559 0.2240453 -0.15881246 0.18277654 -0.09084801 -0.41973823 -0.05808881 -0.10296386 -0.34809008 -0.37072894 -0.05969698 0.1482875 -0.32084844
484 0.24026445 0.42751396 0.2550829 0.030485416 -0.21495779 0.005722085 0.041158333 0.17285743 0.17811732 -0.09375044 0.044687856 0.10949001 -0.15328425 -0.14084625 0.0013575963 0.20494679 -0.07267953 -0.119373515 -0.59513485 -0.19499274 0.27462715 -0.18115717 0.13464057 -0.16768286 -0.47371086 -0.20302223 0.006613591 -0.39037412 -0.27907035 -0.07302351 0.2008801 -0.22230694
528 0.24238707 0.39272848 0.16931008 -0.025437629 -0.22776626 0.04025738 0.053593855 0.17244095 0.06852747 0.004493951 0.051652964 -0.09887063 -0.28580767 -0.25623566 -0.06935168 0.1070866 -0.05583682 -0.14599252 -0.5529266 -0.0008193905 0.20731056 -0.073982745 0.07619633 -0.051550325 -0.5028885 -0.198373 -0.22368424 -0.4281693 -0.05153062 -0.06971358 0.13578618 -0.43530887
576 0.23200364 0.6089114 0.083609425 -0.25802723 -0.041200414 0.05581335 0.36573365 0.10659823 0.111585006 -0.04927331 0.02952253 -0.32146773 -0.17232561 -0.094793566 -0.15691924 0.34666184 -0.10682033 -0.11480884 -0.47361952 0.2850049 0.24267665 -0.10091801 0.11007232 -0.30818018 -0.30884767 -0.068365246 -0.38911152 -0.31447998 0.09244978 -0.115888245 -0.030100856 -0.30877477
526 0.35812247 0.14573312 0.23974596 0.10622551 -0.27422205 -0.18598907 -0.26043686 0.21998268 0.084845744 0.0142408 0.12459658 -0.2239852 -0.37604186 -0.18835422 -0.11769536 0.038567018 -0.26316664 -0.3897273 -0.31617615 0.14674538 0.23930378 -0.1392596 0.07823982 0.04452844 -0.37740165 0.052825216 -0.06976271 -0.24128176 -0.3374982 0.044098403 -0.05436784 -0.48589894
542 0.3193416 0.34496188 0.29334605 -0.21400984 -0.07698576 -0.28566515 0.32515383 0.23864092 0.05651724 -0.27856502 0.020957958 0.106721565 -0.19922727 -0.01130077 -0.022248251 0.18245764 -0.16861387 -0.15079519 -0.8235052 -0.09524836 0.032806452 -0.17656744 0.15264313 -0.07626803 -0.71919054 -0.38756 0.060871802 -0.3352059 -0.24209936 0.1799462 0.15006872 -0.2138368
625 0.24468708 0.661233 0.11831814 -0.15082335 -0.14958915 0.011208951 0.26257914 0.23857965 0.15600996 -0.20748691 -0.14313254 -0.46527997 -0.49740213 -0.1970026 -0.035550885 0.34724343 -0.37961593 -0.15450066 -0.48975697 0.3327925 0.47036332 -0.17518455 0.21965097 -0.274822 -0.25797486 -0.0295084 -0.42894986 -0.3277074 -0.1556019 -0.059520967 -0.02170549 -0.23613311
690 0.24764143 0.010212507 0.12581587 -0.10197592 -0.39453402 -0.43825352 -0.13242008 0.17683321 -0.10621347 -0.1954478 -0.19621226 -0.287163 -0.37208626 -0.087150484 0.03278894 0.04533581 -0.38347393 -0.5211078 -0.29039955 0.014537901 0.060628314 -0.09744625 0.18648909 -0.11603996 -0.38182774 0.070894554 -0.0057161604 -0.15623282 -0.5898971 -0.008026062 0.04974854 -0.39236695
629 0.011057995 0.6443755 0.32518294 -0.13615492 -0.07418094 0.22078566 0.11301146 0.17165259 0.055787757 0.14784499 0.11450093 -0.0072295126 -0.09776893 -0.03824289 0.07116062 0.25302497 -0.1816584 0.21410593 -0.46392933 0.1143425 0.29978508 -0.25650513 0.17876768 -0.29968336 -0.34204713 -0.029183544 -0.10137815 -0.4895913 -0.21473993 0.081002034 -0.07885034 -0.20842795
492 -0.05970759 0.6719272 0.4170644 -0.12372634 -0.26367268 0.18828033 0.645701 0.21044368 0.09145321 -0.032251596 0.30083495 -0.11122001 0.03941054 0.031032015 -0.009120436 0.18139246 -0.305881 -0.014100433 -0.46291307 0.22217792 0.06508435 -0.35377517 0.28715065 -0.1854964 -0.45701182 0.03502557 -0.13899958 -0.445251 0.17871413 0.14068712 -0.28076398 -0.07484986
844 0.3107493 0.61286145 0.0621949 -0.29607525 -0.10268306 0.032299753 0.39366648 0.06062945 0.06602827 -0.07366156 0.040735893 -0.32973802 -0.17377952 -0.109078504 -0.1635359 0.33733135 -0.080233395 -0.20740043 -0.48488498 0.23443235 0.22303149 -0.07556194 0.08248684 -0.25979298 -0.27661222 -0.12296672 -0.43928775 -0.33704582 0.0983246 -0.17437647 0.073945865 -0.35301286
398 0.18852255 0.26621437 0.27342838 -0.085994415 -0.24448247 -0.032203805 0.17779228 0.20069955 0.06671937 -0.19299403 0.053545333 -0.10428514 -0.09522111 -0.066677265 0.038637575 0.0919476 -0.13130246 -0.24712938 -0.5443404 -0.19884889 0.19068207 -0.20014434 0.110835806 -0.05832051 -0.5146749 -0.13984632 -0.06244601 -0.3054248 -0.18940777 -0.030278822 0.14245088 -0.2656619
584 0.27994606 0.63321114 0.053909466 -0.016402377 -0.041594885 -0.036339313 -0.009480134 0.1432319 0.11471571 0.13566613 -0.021438979 -0.14745109 -0.33810526 -0.24005936 -0.18223733 0.30161446 -0.09352622 -0.0025225782 -0.35392046 0.25500953 0.27815518 -0.09012109 0.100364186 -0.27191913 -0.3223614 -0.13950853 -0.27455792 -0.31607756 -0.07683159 -0.15904438 0.05696127 -0.22648266
379 0.25640845 0.3436511 0.32243252 0.0043934505 -0.22064297 -0.14949295 -0.14451331 0.24729243 0.0929899 -0.026194759 0.047062982 0.0055800485 -0.28169423 -0.1362263 -0.09438327 0.09829219 -0.21266843 -0.18958966 -0.45140243 -0.031065108 0.13781872 -0.09877594 0.253235 -0.123106405 -0.38345152 -0.13455461 0.036399662 -0.27541032 -0.45855495 -0.016443875 0.11289022 -0.31351265
449 0.21120739 0.43977684 0.28806707 0.09859737 -0.17967986 -0.004360499 -0.036874477 0.11211048 0.16058409 -0.031037813 0.08284875 0.22020708 -0.11741055 -0.12492375 0.0296287 0.18476139 -0.04522384 -0.087820016 -0.6244351 -0.24509193 0.23331222 -0.19036761 0.14921108 -0.1129794 -0.47098982 -0.26385212 -0.002067855 -0.37346795 -0.3054721 -0.045955155 0.2392896 -0.18693115
487 0.26148227 0.5963165 0.07207486 -0.116596036 -0.042354606 0.013611282 0.14387369 0.09837834 0.10935744 0.06620876 0.032762878 -0.1644858 -0.25919485 -0.17129587 -0.15533596 0.30997583 -0.08434418 -0.03706977 -0.41286793 0.26317483 0.26685056 -0.07562807 0.08264377 -0.27219632 -0.30972522 -0.08387439 -0.29650137 -0.3008398 -0.015718173 -0.14893575 0.022386875 -0.2689635
556 -0.030811628 0.7156382 0.43743518 0.04319072 -0.17999883 0.08931705 0.16794759 0.17889132 0.06868198 0.09300829 0.23693494 0.016034707 -0.011519197 -0.046382412 -0.06366744 0.124638 -0.24573964 -0.014556065 -0.47337133 0.083756275 0.06103759 -0.3565382 0.23883547 -0.06734712 -0.43809286 -0.028826533 -0.19549046 -0.38357326 -0.20576553 0.025590621 -0.023083102 -0.109200604
514 0.13802275 0.62907356 0.17754006 -0.056326527 -0.09941362 0.059988417 0.09417198 0.18330565 0.083927415 0.018092727 0.03297735 -0.16589211 -0.21941295 -0.09297109 -0.10867236 0.18284689 -0.18991065 -0.057964433 -0.3827308 0.18256444 0.26320145 -0.14820074 0.16595002 -0.2038773 -0.17532705 0.0007932998 -0.32832292 -0.4104314 -0.21282578 -0.055206303 0.0025296991 -0.25319317
573 0.25216877 0.31904513 0.28918782 0.025700375 -0.14276509 -0.23389304 0.01807622 0.17670311 0.08425334 -0.10972474 0.10191061 0.23287469 -0.12099409 -0.00027248988 -0.06007709 0.10907778 -0.045395494 -0.15201788 -0.5958812 -0.2345496 0.008678908 -0.1627561 0.20345989 0.017566536 -0.4689025 -0.2447714 0.013871399 -0.25519207 -0.38990936 0.06991264 0.2489218 -0.10991173
384 0.1215258 0.41490126 0.26417097 -0.058201883 -0.21480268 -0.04408608 0.00090161257 0.20401068 0.04097997 0.012713368 0.049041446 -0.18936838 -0.17022154 -0.03231703 0.002023054 0.11724238 -0.31072456 -0.17039658 -0.35026672 0.0976366 0.14835301 -0.23615769 0.19518027 -0.12622614 -0.35442692 0.045986343 -0.07347489 -0.28533205 -0.34583035 0.008107101 -0.06103941 -0.26262307
675 0.039532702 0.49954885 0.253644 -0.06831972 -0.18273322 0.05419373 0.11876628 0.23192225 0.07790642 0.0005239258 0.120399594 -0.08243582 -0.1169471 -0.05087221 0.021936122 0.14594428 -0.15294445 -0.017450187 -0.46372113 0.05547403 0.12540263 -0.28185955 0.14438525 -0.10330756 -0.3901549 -0.023950394 -0.112117834 -0.35022095 -0.15127839 0.026239559 -0.034072425 -0.17718796
478 0.19815959 0.5365178 0.14155 -0.08205322 -0.10643496 0.013715015 0.14738543 0.1567568 0.07540505 -0.07250836 0.045844216 -0.18398488 -0.14347446 -0.08395217 -0.11726006 0.15645094 -0.15764892 -0.18416563 -0.3840379 0.12397063 0.20782277 -0.102930956 0.14227039 -0.10754887 -0.21590151 -0.015711473 -0.2939182 -0.34620753 -0.15786183 -0.08400828 0.05824808 -0.28574687
427 0.21414518 0.39833015 0.255923 0.05881119 -0.11712315 -0.02781284 0.08723654 0.1256757 0.14225787 -0.10420695 0.07138137 0.11893083 0.022789385 -0.06623843 0.013749929 0.13440306 -0.10740647 -0.16305973 -0.57017547 -0.29552388 0.21033989 -0.15549023 0.10997367 -0.086392336 -0.4607611 -0.14684498 0.0074295294 -0.3349434 -0.3227654 -0.046860725 0.25570953 -0.14555806
756 0.0659357 0.4863838 0.34954104 0.44795159 -0.25549677 -0.12637815 -0.4679504 0.09114168 0.08100743 0.2365932 0.21694782 0.36156622 -0.11980222 -0.09057863 -0.059315857 -0.016439896 -0.09030117 -0.25674206 -0.5679503 -0.28267094 -0.0027386805 -0.20088607 0.3067017 0.24521345 -0.40762156 -0.20414285 -0.11987914 -0.52933186 -0.50891113 -0.03280891 0.24684931 -0.18160726
464 0.22158207 0.24196626 0.16574772 0.010003596 -0.21630508 -0.1697819 -0.121017694 0.20339127 0.04764061 -0.09204921 -0.013486319 -0.12169276 -0.1436528 -0.049609505 -0.062682986 0.036628615 -0.24391821 -0.2812333 -0.3203623 -0.031650294 0.11042526 -0.10039407 0.19971721 -0.1038138 -0.32803473 0.022915527 0.037230644 -0.20041795 -0.40328425 -0.061028145 0.07678397 -0.25932294
765 0.24775381 0.0862631 0.18143612 -0.1138713 -0.29629996 -0.2357653 -0.11169705 0.15258017 -0.01101612 -0.15827495 -0.09666216 -0.2526369 -0.34754747 -0.06473566 0.028166752 0.08348307 -0.30778992 -0.33728433 -0.294207 0.008200156 0.13689572 -0.0833284 0.19662264 -0.12331707 -0.31673762 -0.055755433 0.051652353 -0.17050782 -0.43664262 0.0105880555 0.020753907 -0.3059367
502 0.17337611 0.4400752 0.30330586 -0.0048667183 -0.2501607 -0.0640222 -0.22827363 0.21509923 0.11783272 0.058249418 -0.0050083594 0.011247026 -0.3510155 -0.17948233 -0.042457283 0.21114469 -0.20531644 0.011995569 -0.37152594 0.017379683 0.20680162 -0.1252337 0.2953002 -0.2346042 -0.24680756 -0.11210651 -0.035836972 -0.31627932 -0.39802712 -0.03889718 0.028516227 -0.25400382
529 0.14785902 0.5377897 0.21164188 0.009929801 -0.120275006 -0.014039559 0.09526698 0.14432937 0.045098335 -0.021394819 0.073552944 -0.0101293055 -0.18628095 -0.08539092 -0.08553595 0.12871969 -0.120479226 -0.102644145 -0.45954564 0.041406874 0.1458074 -0.14480495 0.17222239 -0.0674222 -0.30135632 -0.12706828 -0.23731321 -0.3550432 -0.1998904 -0.017255606 0.11953179 -0.1686032
495 0.077947855 0.54777926 0.30970544 0.12493042 -0.16801189 -0.05630296 -0.22523454 0.18572873 0.06826108 0.107077055 0.11361718 0.03835192 -0.15335439 -0.13203919 -0.079273 0.042944968 -0.15043984 -0.13457993 -0.3947196 -0.07748324 0.053930048 -0.18451127 0.26138917 0.0146873295 -0.31429777 -0.061334204 -0.15833023 -0.3278071 -0.3913435 -0.10351084 0.16946079 -0.210715
586 0.32398632 0.24260174 0.25374672 -0.13735151 -0.11891269 -0.19918126 0.06281482 0.15731421 0.05020846 -0.15970865 -0.009219923 0.13460228 -0.2680441 -0.0954059 -0.02182935 0.17132127 -0.059850696 -0.076127276 -0.57358474 -0.118277 0.09221268 -0.07833625 0.13166033 -0.11843313 -0.46151927 -0.30914438 0.07778872 -0.22780256 -0.29344758 0.028040474 0.22037672 -0.15680197
662 0.33278316 0.102964744 0.17250417 0.049857575 -0.20110217 -0.2062635 -0.13799867 0.20480384 0.0010624776 -0.06360406 0.12052239 -0.32159245 -0.24221502 -0.13903014 -0.16115926 -0.05274408 -0.31612954 -0.5018369 -0.2537238 0.18083465 0.13710847 -0.07895424 0.04812578 0.12794109 -0.4012126 0.16388959 -0.061447345 -0.22963005 -0.32611296 0.041348014 -0.04812874 -0.51463634
494 0.14466561 0.3667185 0.24480315 0.061417855 -0.13984273 -0.0859111 -0.09173644 0.19965613 0.068864025 -0.0351457 0.048897598 -0.04741387 -0.021274652 -0.043082517 -0.080085725 0.0114081595 -0.23134978 -0.2385533 -0.36562893 -0.086095914 0.046091124 -0.094905905 0.22418503 -0.037858643 -0.30125257 0.021104487 -0.050318528 -0.2535087 -0.39580658 -0.05909167 0.12485313 -0.24335304
366 0.1866907 0.32082912 0.2362173 -0.029400323 -0.1570001 -0.12525368 -0.013195619 0.18019928 0.03192898 -0.05358543 0.052390918 0.016970627 -0.19754845 -0.104395 -0.045895826 0.07989949 -0.17006013 -0.15442534 -0.49396834 -0.070009634 0.07913499 -0.11647127 0.18381293 -0.06854027 -0.4400003 -0.15699351 -0.024682943 -0.29363236 -0.30185 0.022432888 0.102622084 -0.2432175
456 0.1198097 0.33263668 0.22210295 -0.006344343 -0.20768003 0.004284541 0.018048398 0.18450522 0.040946394 0.025419505 0.08753933 -0.03204811 -0.18500099 -0.15164196 -0.016444858 0.06296192 -0.09237521 -0.11712778 -0.44192293 -0.029014325 0.11185814 -0.13278538 0.13219368 -0.0052423347 -0.4080935 -0.10891962 -0.13385528 -0.35859084 -0.14018261 -0.035278287 0.079113185 -0.28450152
727 0.16829152 0.63945645 0.19445015 0.0059922766 -0.1428563 -0.05763045 -0.028140454 0.1917855 0.15613483 0.13944592 0.009270281 -0.028710676 -0.33063456 -0.17877026 -0.09645613 0.25310478 -0.115986496 0.038221262 -0.2953876 0.17768477 0.19383526 -0.15420254 0.19195308 -0.21913433 -0.2391034 -0.033058286 -0.13005735 -0.3376337 -0.19303174 -0.11289993 0.036719814 -0.15651727
646 0.21568745 0.025715198 0.12536341 -0.106741905 -0.10501697 -0.17256263 0.25748828 0.009539834 0.040780187 -0.278044 0.13797791 0.26335 -0.07284473 0.08828051 -0.005019826 0.006922724 0.1024402 -0.13450046 -0.6911619 -0.24051873 -0.007077118 -0.112767756 0.026540505 0.087646954 -0.5301613 -0.36194992 0.06043795 -0.14255266 -0.10994755 0.20302202 0.3099047 0.0033140206
527 0.30489203 -0.002036699 0.16702692 -0.014952447 -0.23666331 -0.17431828 -0.030766433 0.1558095 0.0074504437 -0.13080837 0.092113435 -0.28746706 -0.20783524 -0.060397163 -0.08903248 -0.06376185 -0.19337039 -0.50430423 -0.30708402 0.010275343 0.14071847 -0.06670401 0.02851884 0.14995359 -0.32098842 0.048510566 -0.118977584 -0.16429551 -0.25891382 0.04850332 0.030197581 -0.4275992
515 0.23545808 0.4559848 0.112351224 -0.17766157 -0.09224834 0.010531123 0.23542365 0.12601343 0.06758511 -0.07276066 0.012457298 -0.2435019 -0.0865757 -0.04172312 -0.1265172 0.22241783 -0.14071943 -0.15938994 -0.36659396 0.17152984 0.17724618 -0.06200273 0.15918887 -0.18652456 -0.20703985 -2.0842655e-05 -0.28809673 -0.2775083 -0.0813738 -0.12770678 0.026804917 -0.2844682
787 0.1620637 0.2367774 0.21891636 -0.03743565 -0.21708645 -0.023085523 0.009121938 0.17726944 0.021173174 -0.060679864 0.10423323 -0.024824895 -0.21246372 -0.118229985 0.03303218 0.0030775669 -0.037782013 -0.1816778 -0.47669324 -0.17373307 0.10461437 -0.15068938 0.10336215 0.058778007 -0.43608248 -0.18145439 -0.17820488 -0.33499524 -0.1720819 -0.044591635 0.18977864 -0.2628786
734 0.17423803 0.13340665 0.22359131 -0.1519071 -0.23603617 -0.02176113 0.09735234 0.20696354 0.06643507 -0.17930037 0.09855247 -0.17819096 -0.28265005 -0.16510743 0.0009961507 0.055475786 -0.021933042 -0.20177992 -0.4550412 -0.11091344 0.15183175 -0.12765121 0.14432682 0.022820842 -0.36995122 -0.1979751 -0.23182747 -0.27480674 -0.051604565 -0.023872213 0.11247439 -0.28491732
631 0.097870275 0.41581735 0.29807752 0.043363385 -0.22099936 -0.052537575 -0.11546394 0.16648915 0.08405062 0.09290929 0.05545887 -0.016141059 -0.23151958 -0.13067462 -0.036676507 0.16676998 -0.15879717 -0.016354134 -0.2936092 0.07717223 0.119232364 -0.17311661 0.2300717 -0.16418663 -0.2388031 -0.039300043 -0.088687494 -0.32448995 -0.2896723 -0.02806597 0.027667927 -0.23489895
750 0.14487849 0.406167 0.27852768 0.13049681 -0.24346559 -0.02219221 -0.31581053 0.17381157 0.1009196 0.1864977 0.02471719 0.07166458 -0.3519517 -0.25288698 -0.018896913 0.19396318 -0.13708726 0.108207695 -0.3380506 0.037903756 0.19319512 -0.1309993 0.23553479 -0.1914558 -0.2756271 -0.17526215 -0.030374961 -0.34607118 -0.3383412 -0.03804679 0.052612655 -0.2307866
521 0.0016849797 0.57276917 0.3305774 -0.014823018 -0.16349779 0.09363508 0.21725021 0.13102147 0.07587673 0.029283054 0.1934219 0.02598663 0.009133871 -0.012051785 -0.0092293015 0.14732787 -0.16656664 0.008001294 -0.47132248 0.051833265 0.10449042 -0.31437594 0.16910595 -0.0845948 -0.40224963 -0.056557383 -0.13489345 -0.35537666 -0.10490088 0.04180602 -0.01903716 -0.114546165
394 0.14404349 0.27960232 0.22634137 0.031307574 -0.18544063 -0.08988482 -0.046203103 0.16313381 0.045933258 -0.026992843 0.0920394 0.032071948 -0.19507906 -0.081473455 -0.026679104 0.09208848 -0.0984083 -0.120074295 -0.3728089 -0.09542255 0.10470306 -0.12423369 0.1836534 0.0054371427 -0.31680778 -0.15432103 -0.07465379 -0.26439628 -0.21552248 -0.022783268 0.08916439 -0.20645638
466 0.10986839 0.3796724 0.23221989 0.08657839 -0.18162072 -0.051313557 -0.14005706 0.17273946 0.036070656 0.05058611 0.077052295 -0.0012653337 -0.13649696 -0.121027425 -0.048533347 -0.00086375535 -0.112014726 -0.1471909 -0.35223415 -0.05844387 0.05700927 -0.1136717 0.20565635 0.0025853058 -0.29997343 -0.07944929 -0.11825121 -0.28987536 -0.29668015 -0.09813991 0.14706315 -0.20908624
785 0.21250638 0.1052655 0.16347325 -0.12870051 -0.13156484 -0.17857338 0.27139437 0.077407755 0.04305214 -0.2625051 0.15082513 0.18156648 -0.15402696 0.061175026 -0.00869209 0.024638137 0.06976763 -0.17457244 -0.73799586 -0.19301532 0.023282694 -0.15063588 0.066139005 0.08070215 -0.53259236 -0.35107136 0.044762474 -0.17362702 -0.12956601 0.2133879 0.29818568 -0.038046923
759 0.09864135 0.42914823 0.22234148 0.016541073 -0.14961967 -0.06476148 0.09864823 0.13302386 0.055909187 0.044163357 0.088585466 0.053109087 -0.12846372 -0.027364492 -0.023156144 0.15483314 -0.14171231 -0.05649187 -0.37878382 0.010068593 0.058467057 -0.16902524 0.20858063 -0.1053468 -0.3076957 -0.12568232 -0.066931434 -0.2964986 -0.18885049 -0.0044843657 0.031918418 -0.12890199
504 0.066176094 0.4712497 0.29909533 0.11340838 -0.16163139 -0.012369782 -0.1369129 0.15790361 0.040963292 0.07146576 0.12318184 0.06385028 -0.12543996 -0.11650131 -0.054791577 0.025680887 -0.081910715 -0.08771899 -0.42927414 -0.12194747 0.06309621 -0.17320971 0.21554278 0.043787517 -0.33808187 -0.14082219 -0.18531567 -0.3424959 -0.3106733 -0.05871841 0.16402273 -0.16321705
735 0.2522243 0.03175384 0.11251596 -0.14839187 -0.05087077 -0.17230034 0.21919511 0.10082385 0.009757952 -0.2804975 0.08079912 0.16652441 -0.09662662 0.015144399 0.077912234 0.07009406 0.051572107 -0.109935716 -0.62830937 -0.24581571 0.06929863 -0.08314742 0.010782449 0.042272385 -0.49341008 -0.3475704 0.08395764 -0.09648931 -0.16027717 0.16904972 0.2802471 -0.047059186
605 0.16738348 0.2441276 0.1629926 -0.11421912 -0.17208092 -0.012272741 0.12755713 0.17613432 0.03091157 -0.090757586 0.048451938 -0.25164756 -0.1471706 -0.08257877 -0.05504044 0.04188639 -0.20232487 -0.2282376 -0.35352027 0.086773954 0.130714 -0.10929411 0.11839829 -0.0507355 -0.31792513 0.027537908 -0.124458596 -0.22108302 -0.15107442 -0.007349894 -0.01681339 -0.3279377
558 0.17900875 0.40258786 0.10041934 -0.055464767 -0.13803434 0.023607139 0.10473516 0.17349643 0.09414355 -0.11440283 -0.030275716 -0.2372874 -0.21603525 -0.08443723 -0.038507264 0.09997378 -0.19625935 -0.1352472 -0.37996858 0.08307901 0.23997328 -0.12825426 0.15059997 -0.08079208 -0.22485869 -0.042022727 -0.27200264 -0.26461846 -0.1401801 -0.04897931 0.03894632 -0.19368695
401 0.19393706 0.24435106 0.18922979 0.019477937 -0.14949635 -0.057524867 0.008569471 0.15600859 0.08239369 -0.064211756 0.07079068 -0.051965434 -0.13898474 -0.11756128 -0.020025846 0.06599208 -0.14442338 -0.17789131 -0.39893475 -0.039547924 0.15579826 -0.12821628 0.10921557 0.0075471424 -0.3898804 -0.07499343 -0.0367669 -0.2690744 -0.1901797 -0.013104084 0.07213501 -0.27471256
503 0.108106196 0.38834906 0.18080291 -0.10787649 -0.1239986 0.046810247 0.1813143 0.16070059 0.1000319 -0.050034072 0.051290687 -0.12322301 -0.09931456 -0.06877965 -0.048131466 0.16380624 -0.1815054 -0.05051878 -0.36463106 0.105859384 0.13567933 -0.17719409 0.11029223 -0.15653105 -0.30191597 0.010600898 -0.08191354 -0.26976165 -0.13578501 0.03162054 -0.050898746 -0.21451123
416 0.1371038 0.3105447 0.17377067 0.014115917 -0.18599887 -0.074677154 -0.07402736 0.20525725 0.08653514 0.01758961 0.095318384 -0.01605359 -0.2566465 -0.15570307 0.0072445692 0.060573027 -0.004155363 -0.06501143 -0.36040276 -0.107548006 0.08874548 -0.12168566 0.14597853 0.007765187 -0.29940063 -0.16830422 -0.16749139 -0.27806413 -0.18422574 -0.051691268 0.17578582 -0.16360801
550 0.040807888 0.40261117 0.1931178 -0.22356232 -0.004699031 0.19313222 0.28884917 0.11945771 0.02480843 -0.037293527 0.08864574 -0.088256754 0.046085417 0.019253138 0.06647318 0.18066896 -0.12199408 0.06646612 -0.43783316 0.076448545 0.21071604 -0.18359299 0.043286048 -0.18191747 -0.32439595 0.0028762629 -0.110113494 -0.31794223 -0.04982165 0.12249777 -0.08392701 -0.15478767
553 0.13501132 0.3450968 0.21429917 0.0459981 -0.18729751 -0.053191103 -0.023384472 0.16991565 0.034668338 0.053418513 0.07283727 -0.06699463 -0.12100719 -0.082444735 -0.057001695 0.074538626 -0.1765863 -0.20281322 -0.31116003 0.015431618 0.08253619 -0.14188835 0.17396675 -0.024713269 -0.25857487 -0.026995415 -0.1330899 -0.31606287 -0.20137195 -0.025348427 0.019489303 -0.23988317
779 0.02888583 0.5318156 0.30059332 0.12643702 -0.1494535 -0.045018267 -0.23451781 0.1487299 0.066929325 0.121865235 0.13345678 0.14619666 -0.20436494 -0.11403401 -0.083966985 0.049908902 -0.10027089 -0.04136567 -0.34113836 -0.048748396 0.014050516 -0.16898192 0.2716842 -0.018431805 -0.27344337 -0.14133061 -0.16002968 -0.32183132 -0.35331994 -0.06577473 0.17260918 -0.12973087
603 0.09236491 0.47915193 0.19218336 0.035811 -0.09939163 0.023008496 -0.03923699 0.14412153 0.04189588 0.05079251 0.06152113 -0.018286837 -0.16020383 -0.07835659 -0.06576686 0.13021082 -0.15699373 -0.051791348 -0.358517 0.0715797 0.12669055 -0.1587188 0.16031162 -0.07888123 -0.23500255 -0.075547054 -0.21087871 -0.2940353 -0.21319182 -0.025580613 0.063803665 -0.14329404
567 0.19295613 0.12540351 0.15472266 -0.1025744 -0.10059082 -0.13090001 0.15407667 0.11294452 0.015887473 -0.19845419 0.06290315 0.092831455 -0.16140825 -0.016827578 0.034511562 0.062928766 0.02103213 -0.118870325 -0.521623 -0.18608893 0.03472272 -0.08070427 0.056579683 0.020162445 -0.43416786 -0.27946874 0.015457842 -0.17234394 -0.15110166 0.10177188 0.20903935 -0.0878964
913 0.01992 0.51871806 0.30464512 0.1409286 -0.1469499 -0.068989344 -0.21966836 0.14685145 0.022388617 0.122538865 0.12437807 0.1345406 -0.17652005 -0.10714151 -0.06063883 0.007826394 -0.09131505 -0.083097756 -0.32266822 -0.05398496 -0.009889242 -0.17884338 0.2443753 0.044999104 -0.2612428 -0.13660035 -0.18836603 -0.3112443 -0.37273583 -0.06286412 0.2014031 -0.10711573
606 0.16614525 0.34360868 0.23387505 -0.015200419 -0.17570029 -0.046014894 -0.08544478 0.16333202 0.09885699 0.01997947 0.018913683 -0.015554095 -0.2513087 -0.14157464 -0.046201166 0.16952826 -0.10812895 -0.047144957 -0.32955107 -0.008929263 0.19016418 -0.120206445 0.17964366 -0.14847946 -0.22449635 -0.11302723 -0.063387476 -0.2757444 -0.24085753 -0.06715227 0.06027883 -0.22878852
378 0.10214217 0.39732808 0.2393725 0.04135476 -0.115558885 0.0086594485 0.05470778 0.10659137 0.073332794 -0.008159373 0.093925945 0.113219135 -0.061470203 -0.05399966 -0.016940283 0.14146852 -0.06762217 -0.07100152 -0.42524517 -0.10847987 0.12535572 -0.13994667 0.14530247 -0.07400635 -0.3285539 -0.14466661 -0.10155154 -0.3044457 -0.19110228 -0.03161937 0.14647363 -0.119778104
593 0.14351647 0.3115695 0.21696782 0.024153266 -0.0969628 -0.019937366 0.06377224 0.1136781 0.10178304 -0.055919513 0.0871654 0.116314575 -0.057695437 -0.0884453 -0.005566429 0.10433306 -0.067179434 -0.10957869 -0.47936457 -0.17340286 0.14587113 -0.13561375 0.0944869 -0.031617023 -0.36603448 -0.14343457 -0.03223041 -0.27979368 -0.2122177 0.010629739 0.16133451 -0.15181527
479 0.17183492 0.06818654 0.11939009 -0.10069467 -0.23622115 -0.11742751 0.038601905 0.1451414 0.0070861843 -0.16803697 -0.044315945 -0.19516033 -0.18886495 -0.017084591 0.040451843 0.026577756 -0.18546543 -0.26072258 -0.29257587 -0.05141666 0.10424271 -0.1046104 0.12858948 -0.09256114 -0.2920777 -0.035357524 -0.011100007 -0.16999726 -0.22312404 0.0019544451 0.054663215 -0.24014844
604 0.050398845 0.42321578 0.25506565 0.023122426 -0.14885564 0.008111753 0.08563338 0.16668245 0.035059046 0.021529004 0.12129967 -0.051204383 -0.039919473 -0.033639666 -0.064426176 0.085251085 -0.20034647 -0.12464061 -0.27687103 0.064426705 0.060534783 -0.17977333 0.20412138 -0.040207624 -0.24804421 0.025317442 -0.12776121 -0.2566551 -0.14605048 -0.023447553 -0.011788762 -0.1625007
590 0.100986764 0.22752348 0.19581106 0.058818407 -0.18632184 0.057784203 0.09455459 0.14370021 0.053663164 -0.021921478 0.100233555 0.034406018 -0.11955578 -0.15269838 0.027520048 -0.028254036 -0.032977194 -0.1559951 -0.48524344 -0.1669237 0.07661768 -0.18212175 0.10507744 0.14238791 -0.43815306 -0.23129605 -0.16697697 -0.37068465 -0.024241911 -0.010115944 0.13948764 -0.26895025
685 0.18883215 0.16866113 0.12680879 -0.023008956 -0.1439504 -0.045787062 0.080746524 0.1157667 0.0574428 -0.14231168 0.025157645 0.023620041 -0.09261817 -0.04667267 0.014783303 0.05787744 -0.011982593 -0.17767937 -0.4163375 -0.22203426 0.11231359 -0.08181089 0.0901174 0.016588323 -0.34005797 -0.17307693 -0.07739951 -0.24759308 -0.1720829 -0.018069362 0.18319987 -0.18121472
451 0.0767048 0.31245497 0.15587482 -0.16543427 -0.08624109 0.06522293 0.28095454 0.1511299 0.06367798 -0.113618575 0.08614032 -0.11698696 -0.09367086 -0.008199024 0.004918675 0.14484568 -0.08456283 -0.026563067 -0.3987084 0.027395392 0.13670361 -0.16686481 0.08826135 -0.11087223 -0.30715558 -0.07332636 -0.1603676 -0.25528422 -0.027251286 0.054874506 -0.0039379564 -0.16341113
544 0.09156172 0.32526925 0.22432072 0.07852162 -0.15610261 -0.006565514 -0.016705604 0.1461588 0.011523348 0.024900926 0.09217858 0.032955673 -0.106054924 -0.09893366 -0.031106561 0.023089338 -0.060456015 -0.11477033 -0.39658183 -0.105854 0.04738214 -0.11469691 0.14167245 0.06540374 -0.3457286 -0.13936576 -0.15712735 -0.28762215 -0.152039 -0.004158723 0.13427015 -0.19639528
549 0.04880943 0.3806276 0.17402852 -0.123969585 -0.020027973 0.12253104 0.17648406 0.10174561 0.036148824 -0.0025678184 0.069112614 -0.05148506 -0.02606465 -0.0111701125 0.011884691 0.15313822 -0.12780768 0.045859773 -0.35648775 0.09458881 0.19706279 -0.18540922 0.044772394 -0.15807094 -0.29792398 -0.04240944 -0.09153624 -0.2773766 -0.09213725 0.02453512 -0.0395896 -0.12848496
619 0.02289018 0.36339596 0.16837771 -0.2373861 -3.0011775e-05 0.19212978 0.295969 0.10979145 0.0050827544 -0.030366933 0.10196205 -0.10550714 0.05241963 0.02870541 0.060767177 0.1390437 -0.12879075 0.07856058 -0.35919836 0.092457496 0.17443381 -0.15964694 0.018098205 -0.17966868 -0.28424534 0.011109551 -0.10061744 -0.26518413 -0.009205914 0.113006055 -0.08196132 -0.12055631
533 0.14101978 0.3101657 0.18309936 0.052720603 -0.12985826 -0.12499538 -0.10668606 0.16606939 0.07911574 0.0066809095 0.05777199 0.08727082 -0.2542215 -0.100853786 0.0021361175 0.107390255 -0.048021033 -0.017872578 -0.3816284 -0.092038415 0.08908651 -0.13592122 0.13266127 -0.022252098 -0.34632206 -0.16409217 -0.03156966 -0.2252299 -0.26988795 -0.016101088 0.16574313 -0.107380815
402 0.108432636 0.3265917 0.15531063 -0.10060245 -0.06888672 0.088669926 0.17045364 0.11161459 0.034382194 -0.02788256 0.044632293 -0.066763684 -0.09190116 -0.055935755 0.00259519 0.11734572 -0.09535899 -0.03172989 -0.38613203 0.040673997 0.1804233 -0.1303313 0.052236095 -0.10611565 -0.30952904 -0.07183979 -0.14213246 -0.28621083 -0.05654878 -0.0007204778 0.027195007 -0.19823426
780 0.17416084 0.071447656 0.09837458 -0.009389185 -0.13406233 -0.006364218 0.06980571 0.115426905 -0.0010008127 -0.13776514 0.018036807 -0.09590977 -0.14240861 -0.14565551 0.0026656145 -0.072480544 -0.03580361 -0.1695746 -0.40966773 -0.11864796 0.0908361 -0.038826365 0.016757732 0.11023928 -0.40641546 -0.14817333 -0.08136763 -0.25178212 -0.06772295 -0.011206819 0.15697311 -0.30343086
428 0.18717632 0.104018174 0.11819964 -0.07290227 -0.20932584 -0.15908754 -0.04367856 0.104641765 -0.032282952 -0.08693281 -0.061741456 -0.21945928 -0.16923474 0.0008713939 0.011840524 0.047573708 -0.24294107 -0.2892458 -0.22473677 0.040397808 0.09232066 -0.105262876 0.13871258 -0.074220546 -0.24916378 0.040705744 -0.004732023 -0.1681379 -0.31307372 -0.012256689 -0.0060102805 -0.25411823
583 0.20917913 0.03731048 0.1411126 -0.08320696 -0.14425586 -0.1954671 0.12107345 0.08607407 -0.0067982664 -0.24771039 0.038951818 0.08373198 -0.10754928 0.0109472275 -0.003597454 0.0057910853 -0.024219867 -0.20798773 -0.48953876 -0.17797823 0.014262401 -0.060687717 0.063815 0.020970207 -0.42051035 -0.18423682 0.024121584 -0.0980908 -0.22360916 0.10886467 0.18860184 -0.09395108
588 0.09366542 0.26798975 0.15608002 0.03344436 -0.13956216 -0.006953185 -0.009246756 0.11770106 0.023170091 0.025039932 0.09242957 0.04967373 -0.13713615 -0.11625835 -0.0145256 -0.011508467 -0.010707851 -0.082151815 -0.35851982 -0.0882943 0.06497288 -0.11139087 0.08743648 0.0744893 -0.3314533 -0.1617483 -0.122130856 -0.28942078 -0.09185297 -0.03753311 0.14735997 -0.17070924
762 0.02964284 0.30279812 0.11941908 -0.14250906 -0.06326859 0.110112555 0.23576047 0.112479575 0.015041196 -0.10326408 0.07569676 -0.113403656 0.0149039 0.01185208 0.04334038 0.1405714 -0.11259838 0.00947554 -0.38265768 0.041221634 0.13402566 -0.16471323 0.040946353 -0.09975193 -0.3001881 -0.005152345 -0.09725251 -0.20987102 -0.011352477 0.077865586 -0.072598435 -0.12100116
806 0.12610531 0.2542146 0.20022197 0.015883956 -0.2058049 -0.10070198 -0.19118637 0.16817911 0.036334053 0.05218886 0.007930823 -0.070934236 -0.26431808 -0.1324021 -0.026689844 0.10578664 -0.18463863 -0.10580678 -0.2195454 0.045136113 0.12006521 -0.08924488 0.20147344 -0.14029826 -0.18543062 -0.07959555 -0.054332968 -0.2188635 -0.31788313 -0.04571495 0.014072012 -0.22548565
545 0.113063596 0.3407786 0.111269556 -0.14985098 -0.07198896 0.058199063 0.27141032 0.103548594 0.060287423 -0.074973755 0.06311815 -0.15100832 -0.10456031 -0.057316814 -0.05956128 0.16497763 -0.08056098 -0.050480563 -0.3374901 0.1289741 0.120896615 -0.12715107 0.07110959 -0.12719187 -0.21797247 -0.014010195 -0.17532538 -0.21653976 0.019860387 0.00031750265 -0.01686954 -0.15844022
695 0.15667735 0.044442743 0.0915486 -0.084092684 -0.17632623 -0.08201233 0.047749914 0.13240954 -0.008775749 -0.15001689 0.021908274 -0.15911892 -0.16592057 -0.07967147 0.039893657 -0.002099103 -0.07335566 -0.20433412 -0.29643655 -0.07362776 0.058396097 -0.070664175 0.06874856 0.02651127 -0.2821633 -0.105203174 -0.08627354 -0.16201568 -0.1323442 -0.02491386 0.08645429 -0.2291352
599 0.049072776 0.25732675 0.13041027 -0.12920265 -0.10540616 0.017212428 0.15844733 0.14040558 0.016687194 -0.07795421 0.027836857 -0.11710744 -0.06822752 -0.0010259824 0.035102595 0.10370354 -0.1525271 -0.08787493 -0.33011916 0.06399689 0.1155058 -0.17288078 0.09726273 -0.1142872 -0.28406966 0.003037169 -0.08717636 -0.19348393 -0.09744364 0.05367758 -0.034710668 -0.16795598
702 0.12246718 0.18903771 0.13381419 0.019164382 -0.13484691 -0.005793611 0.03163898 0.11492056 0.0023442744 -0.025196671 0.05670566 0.024405673 -0.13098578 -0.112921506 0.007449121 0.0041483874 -0.012178983 -0.13506445 -0.4073357 -0.123541124 0.0974821 -0.094734706 0.06575933 0.088607684 -0.34908438 -0.19353156 -0.10271731 -0.2520273 -0.09537226 -0.0023260876 0.16667241 -0.21860123
423 0.17410994 0.34496465 0.14038378 0.1110665 -0.15572298 -0.07831604 -0.2912475 0.19107443 0.091582544 0.0800931 -0.00010264809 0.024250414 -0.3155212 -0.20408441 -0.05717993 0.10770101 -0.13940828 -0.012589186 -0.24733588 0.03638505 0.13934335 -0.10139126 0.14790983 -0.094105445 -0.2933772 -0.108491704 -0.015771767 -0.22464226 -0.2985201 -0.070393816 0.0900421 -0.17461652
798 0.16289946 0.007542496 0.12026786 -0.11365757 -0.091599114 -0.13360025 0.2639435 0.0148007255 0.0041141673 -0.2345449 0.108666345 0.18480682 -0.08673877 0.060540766 0.02156216 0.006887714 0.09885778 -0.11682581 -0.55033743 -0.19875483 0.006026046 -0.06356619 0.013241251 0.04940548 -0.44676822 -0.30878958 0.052200705 -0.11070955 -0.07187997 0.16852053 0.25580713 -0.0110289
645 0.14697431 0.07000923 0.13385925 -0.120715 -0.08881762 -0.12215539 0.2706358 0.022933587 0.027483938 -0.23411529 0.116692014 0.16846861 -0.05125478 0.05178082 -0.0051854467 0.03518426 0.076429285 -0.10755062 -0.53204066 -0.1636856 -0.0176255 -0.0900684 0.039559186 0.050123006 -0.43103963 -0.25254878 0.019013291 -0.11645382 -0.07185802 0.16497423 0.20028114 -0.012634328
692 0.15651137 0.10862112 0.12233711 -0.053753447 -0.1246132 -0.12456418 0.06572106 0.076147005 0.020174278 -0.1207747 0.070866875 0.13883255 -0.13573758 -0.010993121 -0.006413848 0.029044235 0.009186671 -0.08035651 -0.41930962 -0.13204792 0.01910329 -0.06566169 0.085421704 -0.022705382 -0.3351941 -0.23382817 0.04870966 -0.12869163 -0.17139879 0.07335957 0.19376878 -0.0550654
743 0.17004092 0.2454501 0.08207139 -0.12949963 -0.112627916 0.0060487282 0.20784654 0.1355475 0.07183936 -0.18536212 0.04103368 -0.13667367 -0.16629979 -0.072589315 0.0056131887 0.0868268 -0.020204032 -0.10643127 -0.39383787 -0.070058875 0.1582258 -0.089060105 0.07419812 -0.03823149 -0.28355688 -0.12701687 -0.21795256 -0.22515006 -0.02745916 -0.023855321 0.08859987 -0.16756977
516 0.048791595 0.3084117 0.1596576 -0.13571401 -0.056568094 0.11136233 0.24745 0.0948243 0.04195342 -0.06385556 0.08210133 -0.07354228 0.011958803 0.01105152 0.026425716 0.13797998 -0.12915798 -0.004711443 -0.38883305 0.048777603 0.15298288 -0.17116296 0.036253653 -0.10607135 -0.3249558 -0.016880509 -0.10444271 -0.22613375 -0.041760232 0.09389515 -0.0403136 -0.15684094
786 0.17354333 0.06002845 0.10932101 -0.08046589 -0.15357514 -0.066709615 0.10834024 0.15430462 0.021100033 -0.16162592 0.03791079 -0.14284949 -0.18469112 -0.063162416 0.009957543 0.0055941534 0.0076943208 -0.18572313 -0.31898052 -0.108252175 0.08886034 -0.07308426 0.044885248 0.06529643 -0.27681953 -0.15020946 -0.12070135 -0.17169331 -0.051582757 -0.0069048363 0.10345822 -0.21985535
628 0.021560043 0.33627382 0.1418517 -0.2184651 0.016890744 0.15716553 0.27631363 0.08012686 0.023507902 -0.020768939 0.08980777 -0.08466913 0.049264602 0.034662638 0.055427168 0.13533369 -0.099183805 0.07835497 -0.35305226 0.099886216 0.17421466 -0.15665561 0.0504545 -0.17589457 -0.2810703 -0.00889882 -0.110982716 -0.26773345 0.0038132796 0.10373365 -0.07750467 -0.13386776
640 0.07361314 0.32027355 0.23195522 0.06355267 -0.16047151 -0.0024874553 -0.073373765 0.10228339 0.08476462 0.11037486 0.062937036 0.08992272 -0.18491323 -0.10829448 0.004807847 0.1638056 -0.07945172 0.040486757 -0.28381282 -0.010684778 0.1009428 -0.1296067 0.14861673 -0.100705795 -0.19841348 -0.108383626 -0.04559345 -0.26879054 -0.18529214 -0.0092401635 0.04474924 -0.12792002
469 0.1632253 0.19538212 0.1336802 -0.018922199 -0.099835925 -0.033546694 0.10512236 0.0711573 0.06748796 -0.09727293 0.0835539 0.077225775 -0.044636235 -0.039848268 0.027388405 0.10973126 -0.005513798 -0.10990489 -0.42530546 -0.13162903 0.13684817 -0.09810549 0.06398838 -0.003987221 -0.31133106 -0.13960557 -0.07765502 -0.18343356 -0.10867192 0.01099878 0.12739134 -0.15045013
538 0.15942079 0.26327616 0.12090978 0.07084982 -0.12912665 -0.03373899 -0.10103393 0.1497827 0.06988778 0.03982998 0.042580415 -0.011034929 -0.19279797 -0.14011002 -0.062401462 0.0657218 -0.11813577 -0.055196013 -0.23007417 0.060838472 0.10484944 -0.080870815 0.0709368 -0.05305073 -0.25044084 -0.049953327 -0.022563705 -0.18422681 -0.18851867 -0.041851263 0.018592726 -0.18774211
557 0.06444885 0.29526496 0.16919771 -0.082721874 -0.09938041 0.04450143 0.07468801 0.13894711 0.044492707 -0.018966172 0.045604162 -0.033005536 -0.111401305 -0.043050077 -0.004431769 0.11666291 -0.1009511 -0.019246543 -0.30279002 0.015444745 0.12983832 -0.12294046 0.116717234 -0.099667616 -0.25983703 -0.07092893 -0.083447196 -0.22536974 -0.13572136 -0.008772744 0.0046758903 -0.14725512
574 0.12274811 0.38427216 0.15611288 0.14058982 -0.09524307 -0.034977578 -0.2136993 0.16853373 0.060963135 0.13695374 0.057147123 0.0738312 -0.21118852 -0.16101722 -0.054580446 0.117645755 -0.11289389 0.036098562 -0.2486228 0.051283497 0.11215388 -0.1297099 0.14363521 -0.09689315 -0.25373936 -0.08416913 -0.06732639 -0.23694927 -0.2430114 -0.045138296 0.05691194 -0.13074788
372 0.11774553 0.293159 0.104082994 -0.063095845 -0.07247857 0.0015345159 0.12650454 0.06958227 0.014488328 -0.05235893 0.0054401457 -0.11574073 -0.10293058 -0.04018809 -0.049681604 0.123047665 -0.07836518 -0.10786026 -0.26113942 0.05162451 0.084988 -0.071539655 0.07479393 -0.08215217 -0.18270008 -0.0154186245 -0.1870426 -0.17334838 -0.085197575 -0.046467878 0.05071676 -0.17196798
676 0.14111958 0.046793416 0.083896264 -0.08043995 -0.09261075 -0.018959763 0.16975355 0.04700511 0.041380126 -0.15612786 0.05944326 0.0040464248 -0.049985494 -0.0392484 0.04745807 0.037615452 0.02928801 -0.093997344 -0.37505516 -0.1324764 0.088866144 -0.08058032 -0.004498882 0.034908265 -0.2982445 -0.1675666 -0.061754495 -0.14813992 -0.0024586702 0.01416404 0.130677 -0.12033733
570 0.09358098 0.30622485 0.22250037 0.07180694 -0.11785948 -0.046247847 -0.07565024 0.12791598 0.05186775 0.0122524155 0.10132346 0.059959594 -0.10369345 -0.0576261 -0.017220885 0.06568961 -0.07121662 -0.073519 -0.30545953 -0.10086201 0.041926134 -0.13279481 0.14797862 0.028232299 -0.24544214 -0.11676771 -0.1207898 -0.23559734 -0.21551694 -0.03870313 0.1324632 -0.11684364
591 0.16174631 0.1644481 0.044484615 -0.13144858 -0.051594887 -0.01707573 0.18271212 0.11041617 0.03605907 -0.16005401 0.019035753 -0.1748373 -0.12465281 -0.027867017 -0.038088333 0.07804108 -0.09562238 -0.13770835 -0.28415757 0.067517236 0.15150978 -0.042438045 0.033905927 -0.05306577 -0.16328698 -0.023534918 -0.13076968 -0.14144988 -0.05683334 0.004188004 0.01950292 -0.17039196
722 0.045230005 0.3364634 0.19636442 0.04229601 -0.12913585 0.022238178 -0.11461623 0.119231135 0.09798066 0.069975436 0.06562793 0.13943142 -0.1841123 -0.13266152 -0.030748248 0.15401712 -0.09707637 0.07106665 -0.31413165 -0.026187988 0.10927617 -0.09571577 0.20605679 -0.11489174 -0.21386008 -0.17554419 -0.02768174 -0.23887525 -0.18491967 -0.0068859705 0.026354644 -0.09332239
838 0.08164253 0.3003717 0.1808176 0.032397527 -0.13219365 -0.01835836 -0.16350831 0.14170949 0.087539 0.062567815 0.043532614 0.03411156 -0.21135473 -0.116105676 -0.046906367 0.15474093 -0.14902443 0.0031266713 -0.23374708 0.02603653 0.1304553 -0.10099478 0.20433465 -0.11264699 -0.19634357 -0.08355578 -0.03626991 -0.19920167 -0.21220268 -0.016607855 0.03722297 -0.15714824
579 0.15937877 0.015389737 0.07126449 -0.073858626 -0.19846877 -0.1790976 -0.04146033 0.10547646 -0.056635283 -0.10244919 -0.036078732 -0.20180115 -0.15658288 -0.046110723 0.018095007 0.0037438094 -0.17216724 -0.2793886 -0.14555283 0.03935933 0.06407902 -0.068856195 0.084689796 -0.057801396 -0.18596968 0.012154302 -0.00626585 -0.07835346 -0.22615299 -0.016680613 -0.01105763 -0.2317108
867 0.07241162 0.34103096 0.22101985 0.059653867 -0.14900988 0.032712605 -0.16994658 0.11618281 0.09251495 0.0966467 0.065637074 0.08137864 -0.22018193 -0.13321388 -0.035726156 0.15547301 -0.114476934 0.07595268 -0.27904212 -0.0020284478 0.13370472 -0.12850171 0.19359212 -0.14520726 -0.17955056 -0.13088335 -0.06716768 -0.23633115 -0.22497313 -0.03769856 0.025685474 -0.14556073
683 0.11078377 0.075064905 0.09424762 -0.12997535 -0.07289569 -0.054973014 0.24587432 0.050699867 0.026250802 -0.19645771 0.07937059 0.087295435 -0.057786 0.021232504 0.016600493 0.025667325 0.044401955 -0.07144635 -0.42855924 -0.12105237 0.019698445 -0.072430305 0.030976567 0.029991128 -0.35186225 -0.21428174 -0.008902519 -0.11102411 -0.036349956 0.0986995 0.138311 -0.037975073
758 0.11210623 0.22664256 0.16209711 0.017331813 -0.17744312 -0.076188855 -0.15760186 0.14272267 0.04811619 0.049115732 0.014083518 -0.048364736 -0.21564329 -0.09803612 -0.010181333 0.11437602 -0.13998538 -0.056955278 -0.1983007 0.036089044 0.122512154 -0.09847718 0.18767422 -0.10585644 -0.17712314 -0.076974444 -0.045329254 -0.18535364 -0.26974127 -0.053752385 0.009712488 -0.20039326
703 0.09450261 0.12597872 0.12903039 -0.11604561 -0.12989716 0.04558012 0.24161988 0.10619181 0.0142540485 -0.13464002 0.068036385 -0.06340041 -0.099083215 -0.035511117 0.027647495 0.039529417 -0.008472196 -0.071562186 -0.35272068 -0.066457555 0.092612565 -0.13832793 0.050853312 0.012002738 -0.30850002 -0.11262005 -0.10820753 -0.20199125 0.03573724 0.028388977 0.068688415 -0.13761055
670 -0.01838502 0.2628055 0.162117 -0.15809785 -0.07750942 0.10769444 0.4172589 0.07140304 0.04573928 -0.10254406 0.121627696 -0.07315599 0.032062866 0.013163712 0.024736287 0.0989567 -0.10651394 0.049560495 -0.3332004 0.10160264 0.07119214 -0.20959377 0.03714609 -0.08765202 -0.27077284 -0.018473804 -0.07337702 -0.1727458 0.14656356 0.08572562 -0.10096828 -0.07208739
490 0.073774114 0.2932735 0.18468079 0.08430615 -0.12637213 -0.04589621 -0.13820818 0.10847594 0.036079574 0.03616981 0.067963034 0.013621212 -0.09723442 -0.064888805 -0.055246577 0.013297744 -0.108826555 -0.13092712 -0.25203156 -0.06767604 0.0454508 -0.091647565 0.17240053 0.039119724 -0.21846579 -0.068427876 -0.09762044 -0.21494913 -0.25228348 -0.048702374 0.10715971 -0.15895835
